%YAML:1.0
---
detector: !!opencv-object-detector-hog
   winSize: [ 64, 64 ]
   blockSize: [ 16, 16 ]
   blockStride: [ 8, 8 ]
   cellSize: [ 8, 8 ]
   nbins: 9
   derivAperture: 1
   winSigma: 4.
   histogramNormType: 0
   L2HysThreshold: 2.0000000000000001e-01
   gammaCorrection: 1
   nlevels: 64
   signedGradient: 0
   SVMDetector: [ 1.04339449e-02, 7.30055850e-03, 7.13737158e-04,
       -2.39978097e-02, -1.65453423e-02, -9.68935713e-03, 2.10162462e-03,
       1.12541765e-02, 8.17447063e-03, -5.89361414e-04, 9.21791233e-03,
       1.14241987e-02, -9.04722326e-03, 2.06065178e-02, 1.82481185e-02,
       8.02638568e-03, 1.64020732e-02, -2.82791955e-03, 7.84444041e-04,
       3.22015258e-03, 1.05472365e-02, 1.34317391e-03, -5.99171501e-03,
       8.01552832e-03, -7.57709320e-04, 1.48512395e-02, 7.69931963e-03,
       -1.73623245e-02, -1.16271283e-02, 1.05913356e-02, -8.06324556e-03,
       1.06263198e-02, 1.07647432e-03, -8.92970525e-03, 9.55030508e-03,
       -2.88561033e-03, -2.63757892e-02, -9.10915993e-03,
       -4.16237162e-03, -7.31981592e-04, 2.65506213e-04, -1.06814895e-02,
       -1.81228835e-02, -1.79871824e-02, -2.33918540e-02, 1.93944629e-02,
       4.03591879e-02, 2.47307662e-02, 3.72267403e-02, 2.82944813e-02,
       3.67085449e-02, 3.35240662e-02, 2.46375352e-02, 1.74828283e-02,
       -2.92043667e-02, -1.77778900e-02, -1.48074236e-02,
       -2.05930527e-02, -1.91525854e-02, -3.03108394e-02,
       -3.69609632e-02, -1.97346769e-02, -2.93275565e-02,
       -8.33973754e-03, 5.34926727e-03, -1.89939458e-02, -1.92525573e-02,
       -8.82169511e-03, 3.93957784e-03, 2.23907782e-03, 1.01268310e-02,
       -1.25268232e-02, -1.05375862e-02, 3.04498803e-03, -1.63501855e-02,
       -2.98313238e-02, -1.36003159e-02, 1.94415301e-02, 4.80573671e-03,
       1.78954694e-02, -4.57472587e-03, 2.70881224e-02, 3.25166360e-02,
       1.99422482e-02, 4.46428806e-02, 2.18738690e-02, 1.66179165e-02,
       6.53308704e-02, 5.80187701e-02, 3.26396115e-02, -3.56111191e-02,
       -2.77067218e-02, -4.24331948e-02, -4.87266369e-02,
       -5.46380281e-02, -3.04700062e-02, -2.04315782e-02,
       -6.58345735e-03, -2.29501110e-02, -1.74961165e-02,
       -1.46433739e-02, -1.48772281e-02, -5.48940245e-03,
       -2.07887404e-02, -1.78271774e-02, 2.20976826e-02, 1.69611704e-02,
       1.51967187e-03, 1.44580216e-03, 4.00235644e-03, -9.70364269e-03,
       -4.30317741e-05, 1.68635659e-02, 2.70972103e-02, 3.63355391e-02,
       3.95286083e-02, 6.88612694e-03, -1.56412739e-02, -1.64289419e-02,
       -2.67294738e-02, -1.73731241e-02, -4.05073836e-02,
       -2.67324932e-02, 6.52239984e-03, 2.09767860e-03, -1.53232906e-02,
       -1.63181685e-02, -1.18841929e-02, -1.64767355e-02,
       -1.55826276e-02, -2.56329379e-03, 1.15273679e-02, 2.26602182e-02,
       6.54653972e-03, -1.04968790e-02, -7.12718116e-03, -7.65537098e-03,
       -2.78826226e-02, -2.97151301e-02, -2.22355556e-02,
       -2.90140174e-02, -8.59346427e-03, -1.53415799e-02,
       -2.16886885e-02, 1.00926803e-02, 7.06496532e-04, -8.69189762e-03,
       -3.08186729e-02, -1.46877645e-02, -1.03328726e-03, 2.96778325e-02,
       1.65039226e-02, 6.72125351e-03, -1.23353172e-02, -4.24527889e-03,
       -1.35150533e-02, -2.93531325e-02, -3.75871770e-02,
       -6.91481158e-02, -2.11046729e-02, -1.04019092e-02,
       -1.47519121e-02, 4.46660109e-02, 2.92629693e-02, -5.09508354e-05,
       -1.06180580e-02, 3.36037241e-02, 3.53841931e-02, 5.54682277e-02,
       3.24292444e-02, 3.46058682e-02, 9.07693896e-03, 2.94714049e-03,
       -1.15262792e-02, -3.51440646e-02, -2.20960304e-02,
       -4.42887805e-02, -8.26919172e-03, 1.80620758e-03, 1.46384249e-04,
       -3.32938530e-03, 1.15728620e-02, 4.33597062e-03, -6.28356263e-03,
       3.39883030e-03, -1.51746413e-02, -3.69130867e-03, -3.38487141e-03,
       -5.05702198e-03, -1.59669239e-02, -7.25756690e-04,
       -1.14261980e-04, -1.86303705e-02, 1.31836138e-03, -1.57315284e-02,
       -2.03909110e-02, -2.47161649e-02, -2.82470379e-02, 3.09622996e-02,
       2.33609956e-02, 7.56795844e-03, 4.69852181e-04, 1.25361616e-02,
       1.81461256e-02, 2.16083191e-02, 2.26335227e-02, 2.40728352e-02,
       1.62165910e-02, 6.79263007e-03, -1.59495091e-03, -1.79409352e-03,
       3.04587297e-02, -5.05084265e-03, -1.04843406e-02, 7.33657333e-04,
       7.88129028e-03, 5.76962717e-03, 1.13932230e-02, 1.42801590e-02,
       4.75232198e-04, 1.61743369e-02, 2.44034850e-03, -3.30115110e-03,
       -6.30795816e-03, -2.27406295e-03, 5.49147790e-03, 4.27773967e-03,
       1.23078264e-02, -7.03653973e-03, 1.37690036e-02, -8.03515501e-03,
       -1.40565373e-02, -4.21808213e-02, -7.23650167e-03, 2.08719764e-02,
       1.14834122e-02, 9.61898919e-03, 5.23327803e-03, 2.24114023e-02,
       2.52201664e-03, 1.32635776e-02, 2.24018469e-02, 2.41633859e-02,
       1.18924230e-02, 4.56412975e-03, 1.39806904e-02, -2.18651537e-02,
       2.11272128e-02, -9.87524074e-03, 1.08776372e-02, -9.85123217e-03,
       1.25908926e-02, 6.65586995e-05, 9.88501962e-03, 1.16182240e-02,
       -2.96534924e-03, 1.31921750e-02, 2.54530227e-03, -3.59325972e-03,
       1.46057820e-02, 1.10194897e-02, 2.79058865e-03, -2.14200537e-03,
       4.29634796e-03, -1.52465301e-02, 1.18188013e-03, -6.05335459e-03,
       2.82627600e-03, 2.05792431e-02, 2.25027855e-02, -2.47404096e-03,
       1.08294077e-02, 5.53420465e-03, -1.36680016e-02, -8.25550524e-04,
       -7.60153728e-03, -2.71391077e-03, 5.32600237e-03, -2.02798587e-03,
       1.04352515e-02, -9.57019278e-04, -1.09689264e-03, -7.70156458e-03,
       5.94580313e-03, -7.70168961e-04, 1.93324685e-02, 1.39994361e-02,
       8.47596955e-03, -2.19713282e-02, -2.03561243e-02, -1.79529469e-02,
       -2.67896615e-02, -1.67649779e-02, 1.78070943e-04, -5.61214704e-03,
       -1.07301469e-03, -1.70037337e-02, -4.69792448e-03, 6.42496068e-03,
       -7.86422007e-03, -1.36648752e-02, -1.29419835e-02, 2.64348872e-02,
       3.17206569e-02, 3.36805917e-02, -4.50009806e-03, -2.81745959e-02,
       -2.31542662e-02, -5.11340844e-03, -1.88329462e-02,
       -1.44365383e-03, -4.56115277e-03, 1.82081293e-03, -3.37932725e-03,
       -3.17077599e-02, 2.27874368e-02, 2.30442081e-02, 3.54923457e-02,
       2.94208061e-02, -1.78914357e-04, -5.01399906e-03, 2.11423989e-02,
       3.75957638e-02, 1.17472345e-02, -3.88347134e-02, -2.23878957e-02,
       -3.37505527e-02, -3.99521552e-02, -4.58503701e-02,
       -1.23854764e-02, -1.81097724e-02, -1.20598888e-02,
       -3.20306718e-02, -1.44767379e-02, -5.32263611e-03,
       -4.88668261e-03, 1.28195025e-02, 2.19769310e-03, 2.98598167e-02,
       2.09624264e-02, 1.07011190e-02, -4.26729489e-03, -2.16667056e-02,
       -5.47971902e-03, -1.87637880e-02, -2.25427020e-02,
       -4.70055118e-02, -3.62132527e-02, -1.71319693e-02,
       -1.12024890e-02, -3.85335572e-02, 2.81412378e-02, 4.51205187e-02,
       4.02880572e-02, 4.78255823e-02, 3.55180353e-02, 2.22607628e-02,
       2.81022321e-02, 3.16858962e-02, 1.17752273e-02, -2.17921641e-02,
       -2.02246960e-02, -2.78477538e-02, -4.00390103e-02,
       -1.63133517e-02, 7.20167765e-03, -2.36870535e-02, -2.38576364e-02,
       -2.18740012e-02, -8.29486456e-03, -7.76346633e-03,
       -2.86270678e-02, -2.33651157e-02, -2.21689958e-02,
       -1.41681836e-03, -2.02959292e-02, -1.98566299e-02,
       -1.76722370e-02, -1.42283319e-02, -1.31974621e-02,
       -1.37201678e-02, 2.28795619e-03, 3.97530710e-03, 1.68068847e-03,
       -1.55698191e-02, -1.31207276e-02, -1.41573371e-02, 9.72579513e-03,
       2.96901353e-03, 6.38120924e-04, 1.99504639e-03, 9.53120645e-03,
       2.54220515e-02, 1.18280947e-02, 5.94300777e-03, 1.69113092e-02,
       1.18303867e-02, -1.77392561e-03, -2.75483727e-02, -1.89049374e-02,
       -2.93535795e-02, 3.14274244e-03, 2.71209655e-03, 8.88111535e-03,
       5.43945609e-03, -1.85840428e-02, -2.65740659e-02, -4.17004935e-02,
       -4.51977625e-02, -6.99781477e-02, -5.78359030e-02,
       -3.50756012e-02, -1.80522017e-02, -2.32047271e-02, 6.21327050e-02,
       4.43781950e-02, 4.85247858e-02, 3.60438488e-02, 1.12835029e-02,
       4.32198532e-02, 6.66639954e-02, 6.85738027e-02, 7.00841174e-02,
       1.57482997e-02, 4.07765480e-03, 6.22521900e-03, -1.87869333e-02,
       -4.89720255e-02, -3.36791389e-02, -2.05356758e-02, 2.95780622e-03,
       1.91242676e-02, 9.96576715e-03, -8.48574750e-03, -1.55461552e-02,
       -1.58202704e-02, -2.48750709e-02, -5.96290454e-04,
       -8.51907826e-04, 1.30632389e-02, 1.14231892e-02, -1.64395310e-02,
       -2.21945196e-02, -3.29215005e-02, -2.87561864e-02,
       -2.32191347e-02, -2.29602978e-02, -2.28130110e-02,
       -9.35246516e-03, -1.14091123e-02, 5.20134084e-02, 2.95107737e-02,
       5.04520051e-02, 3.51539366e-02, 4.59826272e-03, 2.90705319e-02,
       2.17849147e-02, 4.43378426e-02, 5.78748137e-02, -2.29205266e-02,
       -1.67654902e-02, -1.73248332e-02, -3.11120357e-02,
       -3.52978893e-02, -1.08848773e-02, -1.81350410e-02,
       -6.41795248e-03, -1.22023243e-02, 1.11627928e-03, 5.70207660e-04,
       3.48177180e-03, 5.09454077e-03, 1.07938508e-02, -1.27844373e-02,
       4.56397142e-03, 1.52850403e-02, 1.15535893e-02, -9.16350633e-03,
       -5.63867902e-03, 8.14145803e-03, -2.33796835e-02, -5.18719712e-03,
       -1.93685554e-02, 9.12054628e-03, -4.06587031e-03, -6.66117854e-03,
       1.98570248e-02, 8.02091509e-03, 1.96665041e-02, 1.20443515e-02,
       2.33086944e-02, 8.16015527e-03, 1.32786892e-02, 1.92166213e-02,
       2.47152410e-02, 4.62821731e-03, -5.46156103e-03, -5.99048799e-04,
       -7.08487863e-03, 1.28871677e-02, -5.41515835e-03, 1.05363242e-02,
       2.00458020e-02, 1.57196913e-02, -1.91336684e-03, 1.51018109e-02,
       1.02231908e-03, -1.03840586e-02, 8.54975358e-03, 4.41710697e-03,
       4.84081684e-03, 6.50564581e-03, -9.96430870e-03, -1.46673014e-03,
       1.07669402e-02, 6.59654476e-03, -2.00688388e-04, 2.90406886e-02,
       1.27216764e-02, 2.54028644e-02, 1.53031116e-02, -5.00442460e-03,
       -2.15007029e-02, 1.45656010e-02, 8.07466800e-04, -1.14577543e-02,
       7.02677295e-03, 5.84389083e-03, 1.05872815e-02, 2.52237637e-02,
       -1.62824877e-02, -1.19921770e-02, 2.86981054e-02, 2.17030942e-02,
       1.79256536e-02, 4.90059368e-02, 1.10674249e-02, 3.00488174e-02,
       2.63137463e-02, -9.03097913e-03, -3.42856869e-02, -2.10841615e-02,
       -1.94625817e-02, -3.07792965e-02, -2.52361968e-02,
       -2.54491568e-02, -2.19158586e-02, -1.84491761e-02,
       -3.73819247e-02, 2.39272136e-03, -7.84620177e-03, -9.61777847e-03,
       -5.12499013e-04, -1.18824570e-02, -2.40571834e-02,
       -7.93597009e-03, 5.69470041e-03, 1.06229843e-03, -4.83548641e-02,
       -4.59233904e-03, -1.22549273e-02, -1.73694640e-02,
       -1.59648303e-02, -2.27479506e-02, -1.93747599e-02,
       -1.54602518e-02, -4.51894067e-02, 1.64315775e-02, 4.12904806e-02,
       3.95168327e-02, 9.58951637e-02, 6.48100227e-02, 4.15277071e-02,
       1.75530054e-02, 2.28583049e-02, 2.02562790e-02, -2.70821080e-02,
       -1.43756997e-02, -2.58495994e-02, -4.22935002e-02,
       -5.89387268e-02, -4.90582362e-02, -2.27904208e-02,
       -1.65656712e-02, -2.94693913e-02, -3.65073886e-03, 2.20095571e-02,
       1.28130550e-02, 1.49825457e-02, -2.15296205e-02, -2.37933919e-02,
       -3.05943773e-04, -1.47712871e-03, 9.48845060e-04, -5.95678529e-03,
       4.84639686e-03, -2.81717954e-03, 1.21220937e-02, 4.00964590e-03,
       -1.96049903e-02, -4.79223207e-03, -1.03796571e-02,
       -3.40488413e-03, 6.71411753e-02, 7.29519501e-02, 5.56195788e-02,
       5.08198738e-02, 1.57052949e-02, 1.81540102e-02, 5.00111692e-02,
       4.29850817e-02, 4.95578796e-02, -1.43218804e-02, -2.59587495e-03,
       -2.66530598e-03, -1.21655664e-03, -1.20411506e-02,
       -1.11091705e-02, -1.49461925e-02, -2.47232337e-03,
       -4.98596020e-03, 5.09248930e-04, -7.23903300e-03, 4.54928027e-03,
       -8.71519325e-04, -1.32900113e-02, -1.69546483e-03, 1.24812936e-02,
       1.49774123e-02, 1.59581657e-02, 2.50598509e-02, 3.50536294e-02,
       2.14616936e-02, 5.69343974e-04, -2.62964852e-02, -6.79816399e-03,
       1.99658796e-02, 2.20658630e-02, 1.46409255e-02, 2.61330754e-02,
       4.04969193e-02, 3.36300321e-02, -1.70492800e-03, -2.16534305e-02,
       -1.56832126e-03, 3.59940082e-02, 4.02935483e-02, 2.47858968e-02,
       2.51665860e-02, 1.04484521e-02, 3.97775583e-02, 8.10606498e-03,
       -3.61296311e-02, 9.04325210e-03, 5.06463870e-02, 5.15387207e-02,
       4.06989977e-02, -6.49656542e-03, -1.28748557e-02, 3.54389776e-04,
       -2.97482107e-02, -6.21216446e-02, -2.87004076e-02,
       -1.39889698e-02, -8.63764528e-03, -1.02042756e-03, 2.69042216e-02,
       3.06858290e-02, 6.69598877e-02, 3.01407520e-02, -1.14797829e-02,
       2.31236629e-02, 8.96428004e-02, 7.98305571e-02, 4.95771095e-02,
       -3.28213684e-02, -3.72194275e-02, -4.86842822e-03,
       -4.16664081e-03, -2.93083750e-02, 2.83100177e-03, 7.78849097e-03,
       -6.29751827e-04, -1.39657147e-02, 2.33354606e-02, 1.99640617e-02,
       5.66729493e-02, 3.78040262e-02, 3.91745009e-03, 2.26414371e-02,
       1.47664594e-02, 1.94592848e-02, 2.89712958e-02, -2.75801942e-02,
       -2.22087391e-02, -1.88277010e-02, -4.37119603e-02,
       -3.20447050e-02, -2.00759973e-02, -2.62850951e-02,
       -1.45537863e-02, -2.08873525e-02, 1.04386862e-02, 3.05550313e-03,
       4.78043742e-02, 5.83581254e-02, 1.28484536e-02, 2.86456738e-02,
       4.74559553e-02, 1.60481203e-02, 1.40200648e-02, -2.53199693e-02,
       -3.16089131e-02, -3.01239379e-02, -4.43678498e-02,
       -2.00999454e-02, -3.04687228e-02, -3.37488577e-02,
       -2.45906170e-02, -3.06492355e-02, 1.15783205e-02, 1.96073717e-03,
       1.14413733e-02, -5.13635634e-04, 6.76633092e-03, 1.27929067e-02,
       1.56172635e-02, 1.90052465e-02, 1.77048743e-02, -9.16222489e-05,
       -1.77744534e-02, -2.01749615e-02, -5.04744099e-03, 1.36724832e-02,
       -8.56920239e-03, 4.59343754e-03, 1.28163639e-02, 1.09836459e-02,
       1.27681149e-02, 1.63228088e-03, 9.53142624e-03, 4.18573897e-03,
       1.15748476e-02, 8.82336777e-03, 1.30900266e-02, 1.67020690e-02,
       1.15914466e-02, -6.73652813e-03, -2.55082007e-02, -2.61080116e-02,
       -1.09558729e-02, 2.24447697e-02, -6.61167316e-03, 3.04155936e-03,
       4.59464779e-03, 9.37359408e-04, -2.38122158e-02, 1.85948424e-03,
       -9.34326276e-03, -1.26569858e-02, 3.99074517e-03, 2.84333201e-03,
       -5.13717486e-03, 5.08532953e-03, -2.22279653e-02, -1.70570724e-02,
       8.64027161e-03, 6.27049757e-03, 1.35808752e-03, 3.60885486e-02,
       -4.14515892e-03, 5.02685551e-03, 2.94881361e-03, -1.45559851e-02,
       -8.23320542e-03, 1.15348808e-02, -3.28599731e-03, -1.65893305e-02,
       2.15886673e-03, 1.33506805e-02, -2.00246717e-03, 2.85525247e-03,
       -1.68569405e-02, 2.90143746e-03, 2.36396827e-02, 9.54557490e-03,
       2.39968812e-03, 3.40878628e-02, 8.24904535e-03, 3.27221700e-03,
       1.16678532e-02, -1.08531388e-02, -4.89014238e-02, -2.29964107e-02,
       -3.06230318e-02, -3.84777971e-02, -2.49333624e-02,
       -3.46245728e-02, -2.63807587e-02, -1.86724197e-02,
       -4.43896018e-02, -1.61287934e-02, -1.34289302e-02,
       -1.14545468e-02, 4.69626300e-02, 5.30391000e-02, 3.31269279e-02,
       3.53559596e-03, -1.35446127e-04, -1.31502682e-02, -4.61999327e-02,
       -2.27928162e-02, -3.29988897e-02, -4.21000645e-02,
       -3.87156345e-02, -3.85253876e-02, -3.52720954e-02,
       -1.67521480e-02, -4.26585041e-02, -2.72683892e-03,
       -5.94917033e-03, 4.73905820e-03, 3.02210506e-02, 3.12842950e-02,
       3.69584076e-02, 1.04852552e-02, 2.43141167e-02, 5.80510963e-03,
       -1.17095252e-02, -1.64828617e-02, -2.18326394e-02,
       -1.81185897e-03, 1.12251742e-02, -2.03358824e-03, -6.13877783e-03,
       -1.26280449e-02, -1.11814318e-02, 2.59709693e-02, 1.09040039e-02,
       7.89775699e-03, 2.27711592e-02, 1.08770821e-02, 1.89532600e-02,
       3.86479981e-02, 2.57772133e-02, 2.16852650e-02, -5.57585387e-03,
       -1.48100145e-02, -2.08657142e-02, -2.67912671e-02,
       -1.18380357e-02, -1.51519468e-02, -1.04230642e-02, 5.82133513e-03,
       4.53816308e-03, 2.84571480e-02, 5.04698185e-03, -1.70385111e-02,
       -8.63001961e-03, -7.65249552e-03, 1.13771381e-02, 2.85075605e-02,
       3.86305712e-02, 3.11325006e-02, 1.85189415e-02, 2.71276943e-02,
       2.55805422e-02, -1.06912933e-03, -2.60959845e-02, 4.53812862e-03,
       3.03748883e-02, 2.23682467e-02, 6.53429423e-03, 1.90592222e-02,
       3.60692628e-02, 4.01239768e-02, -8.95776227e-03, -2.84166485e-02,
       5.57929091e-03, 3.69189978e-02, 3.02234925e-02, 1.43193612e-02,
       1.33256270e-02, 1.29682431e-02, 7.35008251e-03, -9.63562634e-03,
       -3.20038721e-02, 8.24751053e-03, 1.82504747e-02, 2.63963528e-02,
       8.08446482e-03, 1.54433437e-02, 2.01652460e-02, 2.91674715e-02,
       -1.45965219e-02, -3.79766934e-02, 1.13817751e-02, 2.26158965e-02,
       1.57162044e-02, 1.32239144e-02, 1.09775132e-02, 2.79518329e-02,
       7.64583498e-02, 3.99254225e-02, -9.01343860e-03, 3.96693237e-02,
       6.18366338e-02, 4.04251851e-02, 2.20849141e-02, -3.44175920e-02,
       -2.74501164e-02, 8.83974507e-03, -2.09912192e-03, -1.15950610e-02,
       1.21319825e-02, 2.99237482e-03, -1.20156975e-02, -2.78627072e-02,
       6.99294964e-03, 2.47017592e-02, 6.22065254e-02, 2.49874219e-02,
       -1.13947717e-02, 3.64973471e-02, 4.20200862e-02, 1.01031447e-02,
       7.93978479e-03, -4.51799966e-02, -3.58908065e-02, -1.27015589e-02,
       -9.01639741e-03, -2.04350501e-02, 2.03422038e-03, -1.23869535e-02,
       -2.36075241e-02, -3.52088176e-02, -1.17227226e-03, 2.15374795e-03,
       4.16695699e-02, 5.87033257e-02, 2.24455409e-02, 3.91737409e-02,
       3.99146192e-02, 1.15209734e-02, -1.91014505e-03, -2.33421307e-02,
       -2.40009278e-02, -2.50808056e-02, -3.28953713e-02,
       -1.71445403e-02, -3.41552310e-02, -2.77657937e-02,
       -1.39095467e-02, -2.12719534e-02, 7.53879780e-04, 5.82798664e-03,
       2.81669497e-02, 4.09568995e-02, 2.41972692e-03, 2.30722055e-02,
       2.02556588e-02, 9.59169772e-03, 2.26118765e-03, -3.08150910e-02,
       -2.48892084e-02, -2.57000998e-02, -2.68798582e-02,
       -2.93715689e-02, -3.60811912e-02, -3.41377445e-02,
       -1.43271238e-02, -2.27635708e-02, 1.18597364e-02, 2.52693612e-03,
       -1.61351066e-03, -1.36952824e-03, 2.32369248e-02, 1.29046582e-03,
       8.35835282e-03, 1.40373707e-02, 1.07914507e-02, 4.34023887e-03,
       -1.39707485e-02, -1.93607248e-02, -2.06483211e-02, 1.81401540e-02,
       -3.98535654e-03, -2.93690292e-03, 2.26053712e-03, 1.48912764e-03,
       1.81703933e-03, 1.33977865e-03, 4.00594808e-03, 1.11574875e-02,
       2.45695207e-02, 8.79075378e-03, 3.75681883e-03, 7.83330575e-03,
       -8.38071632e-04, 5.69062715e-04, -2.02736189e-03, -2.42338725e-03,
       -1.79142151e-02, 2.08005477e-02, -4.95038601e-03, -3.64136952e-03,
       -7.53303524e-03, -3.81345465e-03, -1.90171301e-02, 6.32054696e-04,
       -4.07598400e-03, -1.40468339e-02, 1.53546901e-02, 1.43245384e-02,
       1.70700869e-03, 3.61817749e-03, -1.85789783e-02, -4.29778500e-03,
       2.00344920e-02, 1.66322719e-02, 4.29269858e-03, 3.75009216e-02,
       8.67248327e-03, 1.21872807e-02, 1.17791099e-02, -6.04104484e-03,
       -2.04209425e-02, -5.85681619e-03, -1.09393271e-02,
       -2.09688898e-02, -2.21930724e-03, -3.87890567e-03,
       -3.99341714e-03, -5.46497712e-03, -1.80396922e-02,
       -1.40675744e-02, 9.46000405e-03, 1.20192179e-02, -1.18755745e-02,
       1.69840790e-02, -1.43004558e-03, 1.41822388e-02, 1.28649874e-02,
       -3.01454728e-03, -3.66264768e-02, -1.25295799e-02,
       -2.21632682e-02, -2.91988030e-02, -2.69862209e-02,
       -2.23044120e-02, -2.35684533e-02, -1.44128408e-02,
       -3.02740466e-02, 2.03436129e-02, 1.81883536e-02, 1.97880380e-02,
       4.19622473e-02, 4.80545424e-02, 3.47749069e-02, 2.51505468e-02,
       3.73178013e-02, 1.17490143e-02, -3.88234816e-02, -1.50976963e-02,
       -2.28659082e-02, -4.62808833e-02, -5.78343496e-02,
       -4.01697606e-02, -2.65531298e-02, -1.87744722e-02,
       -2.82488707e-02, 1.39106996e-02, 2.08089873e-02, 1.24825416e-02,
       1.69644505e-02, 2.03412827e-02, 2.49992162e-02, 9.89837945e-03,
       8.55137780e-03, -4.25562524e-04, 1.70193519e-03, -2.63693812e-03,
       -1.45412534e-02, -1.90855246e-02, 1.01547055e-02, 4.20559011e-03,
       7.02502439e-04, 1.16393622e-02, 7.09482515e-03, 4.46841344e-02,
       3.53977978e-02, 6.55065244e-03, 5.66772593e-04, 7.66956992e-03,
       2.39591785e-02, 4.21771295e-02, 4.36612219e-02, 3.85286845e-02,
       -5.35569945e-03, 2.21343804e-03, -1.66537836e-02, -2.50856038e-02,
       -2.07286514e-02, -2.06240658e-02, -1.22381477e-02,
       -5.97662479e-03, -7.65726110e-03, 3.62768918e-02, 4.21909988e-02,
       3.00007500e-02, 6.89224061e-03, -1.19159063e-02, 2.82477122e-03,
       4.02160697e-02, 3.15649547e-02, 3.97658274e-02, 2.29779948e-02,
       1.27092609e-02, 1.30349984e-02, 2.79886019e-03, -1.41615169e-02,
       1.78905986e-02, 3.12473364e-02, 2.86066830e-02, 2.31421720e-02,
       2.75331810e-02, 1.81562491e-02, 3.40109877e-02, 1.73502881e-02,
       -1.13011366e-02, 2.54161982e-03, 1.91250872e-02, 1.33813201e-02,
       1.80123355e-02, 9.77031700e-03, 1.14564374e-02, 2.12304629e-02,
       1.55436667e-02, -2.33179275e-02, 1.96087686e-03, 2.19538696e-02,
       1.71262342e-02, 1.71843767e-02, 1.14517286e-02, 6.82073552e-03,
       1.53086809e-02, -5.90446230e-04, -3.50151695e-02, -2.73687150e-02,
       1.41095847e-03, -2.24059855e-04, -1.13594253e-03, 5.99046201e-02,
       7.24423900e-02, 8.39384422e-02, 6.80275708e-02, 2.73595117e-02,
       3.32270265e-02, 3.53521518e-02, 1.05991252e-02, 1.81954838e-02,
       -1.40454201e-02, -1.04295099e-02, -2.23132287e-04, 1.77440271e-02,
       -4.80518764e-04, -1.64366048e-02, -1.35278422e-02,
       -1.69071425e-02, -2.03260370e-02, 3.68564762e-02, 3.76437530e-02,
       2.53836606e-02, 9.15010460e-03, -3.79023813e-02, -3.15472446e-02,
       5.08585433e-03, -8.82296357e-03, -5.01617929e-03, -1.76539831e-02,
       -1.88630559e-02, -3.63817550e-02, -4.55385111e-02,
       -5.93666583e-02, -5.09444401e-02, -4.53526266e-02,
       -3.96059938e-02, -3.80890258e-02, 3.06887347e-02, 2.49946173e-02,
       3.08412742e-02, 6.00855649e-02, 3.08270045e-02, 1.17980847e-02,
       5.50129265e-03, 1.18446192e-02, 1.76536515e-02, -1.72618087e-02,
       -1.78062823e-02, -1.86988525e-02, -1.10848583e-02,
       -4.87644505e-03, -2.73927599e-02, -2.76269019e-02,
       -1.10976240e-02, -1.69362482e-02, 1.54567631e-02, 2.08444502e-02,
       5.58272796e-03, 2.89528677e-03, -1.12306457e-02, -2.43371725e-02,
       -1.98283624e-02, -7.66734732e-03, -4.95837675e-03,
       -2.49256063e-02, -1.73406955e-02, -2.43506432e-02,
       -1.22769577e-02, -1.24737462e-02, -1.93730816e-02,
       -2.91925054e-02, -2.65895929e-02, -3.29063982e-02, 2.28727981e-03,
       2.46320362e-03, 1.46876611e-02, 1.97478142e-02, 2.76545081e-02,
       2.25581069e-04, -7.20311480e-04, 8.92092194e-03, 5.08992514e-03,
       -5.05439425e-03, 1.09243812e-03, 1.52803548e-02, -6.59864442e-03,
       1.54327892e-03, -2.67035738e-02, -1.32909045e-02, -9.27547365e-03,
       1.49894820e-03, -2.19448446e-03, 4.57384717e-03, 1.43898362e-02,
       1.82214733e-02, 2.14661080e-02, 2.58056447e-03, 2.36710790e-03,
       -1.56242331e-03, -3.54478834e-03, -1.92145705e-02,
       -3.52524058e-03, 1.20335836e-02, 6.49338064e-04, -4.82095918e-03,
       -1.77264065e-02, 4.57749324e-04, -4.76130424e-03, -1.40140746e-02,
       -2.29365155e-02, -5.77972690e-03, -7.32484413e-03,
       -3.17160152e-02, 1.81620568e-02, -3.12285614e-03, -4.42859204e-03,
       -2.52814428e-03, -1.95507985e-02, -6.44300366e-03,
       -5.18384390e-03, 6.36537559e-03, -1.74025632e-02, 2.08210610e-02,
       6.83455204e-04, 9.59085859e-03, 8.72366130e-03, 6.05153269e-04,
       -1.33563057e-02, 9.21253173e-04, -6.51200488e-03, -2.11705714e-02,
       1.98418722e-02, -3.88322631e-04, -1.01032229e-02, -3.59348161e-03,
       -1.48966406e-02, 2.04666406e-02, 3.06176092e-03, 6.88005146e-03,
       -8.08063056e-03, 2.25240476e-02, -2.50820126e-02, -2.87466426e-03,
       -6.07043272e-03, 3.62483738e-03, -3.55623811e-02, -2.42001414e-02,
       -2.09772196e-02, -3.03279888e-02, -2.73951031e-02,
       -2.44120266e-02, -1.36386817e-02, -1.09675592e-02,
       -2.44302750e-02, 1.87359508e-02, 2.73081213e-02, 2.34313924e-02,
       3.92541215e-02, 3.99229303e-02, 4.47586514e-02, 3.25820558e-02,
       2.24721711e-02, 1.91884134e-02, -2.38755215e-02, -2.54513249e-02,
       -2.33164448e-02, -2.31994800e-02, -2.70743370e-02,
       -2.47820728e-02, -2.65145693e-02, -2.44658217e-02,
       -3.02085821e-02, -1.34735964e-02, -6.89198123e-03, 8.97388149e-04,
       -2.59792176e-03, -2.25436711e-03, -9.57940798e-03,
       -6.46501500e-03, -8.16442911e-03, -1.02612991e-02, 2.97026965e-03,
       3.17573827e-03, -2.81501375e-03, -1.05026215e-02, -1.58381090e-02,
       -6.61930535e-03, -9.54340585e-03, -2.78264168e-03, 4.40807687e-03,
       5.64341396e-02, 4.79881577e-02, 6.40029386e-02, 5.83983772e-02,
       3.59088392e-03, 2.14365944e-02, 4.44248021e-02, 3.24341506e-02,
       4.69639525e-02, -2.73154583e-02, -2.63739470e-02, -2.81778798e-02,
       -3.81561294e-02, -5.61041310e-02, -4.65522073e-02,
       -3.46268639e-02, -2.46908814e-02, -1.68919805e-02, 1.03848625e-03,
       -6.47911523e-03, 4.65718983e-03, 1.22472236e-03, -3.02296169e-02,
       -1.11446558e-02, 9.77174379e-03, -7.37417070e-03, 1.44087058e-02,
       1.16685210e-02, 3.27453180e-03, 3.26001942e-02, 5.38578965e-02,
       4.69607883e-04, 9.27684736e-03, 1.60345789e-02, 6.24164799e-03,
       9.09877289e-03, 4.37746709e-03, 2.70341244e-03, 2.08780468e-02,
       3.97217274e-02, -1.74103696e-02, -1.07019255e-02, 4.09069890e-03,
       -7.86135253e-03, -1.09383473e-02, -1.05138188e-02,
       -1.43153490e-02, -1.43695818e-02, 1.00129815e-02, -2.19581872e-02,
       -1.37692895e-02, -3.99287045e-03, -1.42285880e-02,
       -3.26830545e-03, -2.45156959e-02, -1.86853707e-02,
       -1.91353504e-02, -1.52770495e-02, -3.91821936e-02,
       -2.66396292e-02, -8.17015115e-03, -2.96761878e-02,
       -2.49528438e-02, 5.29556163e-02, 5.79198450e-02, 5.25213256e-02,
       5.31918667e-02, 2.11825278e-02, 3.68146859e-02, 2.60612480e-02,
       5.45242522e-03, 1.28933564e-02, -9.73334536e-03, -8.74554180e-03,
       -1.41998725e-02, -2.87114512e-02, -4.59019206e-02,
       -1.45344641e-02, -2.58703716e-02, -2.33986471e-02,
       -1.79442056e-02, -3.34381452e-03, 6.14158623e-03, -1.12181541e-03,
       -8.12979601e-03, -1.61967203e-02, 3.93698830e-03, 1.60399154e-02,
       -4.47433628e-03, -3.30662425e-03, -2.86684167e-02,
       -2.31125765e-02, -2.41718907e-02, -4.88153435e-02,
       -6.37018979e-02, -3.17992717e-02, -2.89172083e-02,
       -2.32801829e-02, -2.21856628e-02, 2.54017767e-02, 2.51528826e-02,
       1.94640346e-02, -1.02617452e-03, -5.50935464e-03, 2.18773913e-02,
       -4.02939739e-04, 4.92953742e-03, 1.08294282e-02, -8.33364669e-03,
       -1.05185164e-02, -1.16413776e-02, -1.45471254e-02, 5.74896950e-03,
       -8.95786448e-04, -1.12038832e-02, -1.10785849e-02,
       -1.25402277e-02, -9.92350047e-04, 1.43108948e-03, 9.01118200e-03,
       -1.12239141e-02, -2.36693472e-02, 1.46623831e-02, 6.88833767e-04,
       4.43449710e-03, 3.45575972e-04, -1.97476801e-02, -1.71010215e-02,
       -8.20881221e-03, -1.93310343e-02, -3.66956810e-03,
       -3.77446739e-03, -1.60406232e-02, -1.26238000e-02,
       -1.72468014e-02, -5.25710313e-03, -8.71777814e-03, 8.81681626e-05,
       1.68236007e-03, 1.46095781e-02, 6.37591444e-03, -6.84026862e-04,
       -6.58399006e-03, -9.91228851e-04, -6.57421676e-03,
       -7.68906111e-03, -4.05356567e-03, -1.13447029e-02,
       -1.31202508e-02, -1.40237901e-03, 4.08051349e-03, 2.44360126e-04,
       -7.00163981e-03, -2.95189559e-03, -6.72417646e-03, 6.42934116e-04,
       -1.40667462e-03, 1.18631814e-02, 9.70321335e-03, -8.93889833e-03,
       -6.80501689e-04, 4.43958864e-03, 1.26372348e-03, 3.03557073e-03,
       4.29073349e-03, -1.11185666e-02, -1.25674775e-03, 1.32776499e-02,
       -1.49124733e-03, 6.01161411e-03, 2.26959819e-03, -1.79032963e-02,
       4.30975528e-03, -1.57396812e-02, -1.46618094e-02, 2.58536898e-02,
       1.04223075e-03, -9.78163816e-03, -2.00488069e-03, -1.71994511e-02,
       7.47993030e-03, 1.33016529e-02, 2.95572169e-03, 4.17860225e-03,
       2.52143852e-02, -1.19942660e-02, 4.82024392e-03, -9.38175479e-04,
       -5.12973825e-03, -1.55547978e-02, -9.01722163e-03,
       -2.49103196e-02, -3.49374153e-02, 9.19004204e-04, -2.15734541e-02,
       -1.30997412e-02, -5.69048477e-03, -8.51500034e-03,
       -1.30640427e-02, 6.55539008e-03, -1.77498627e-03, -1.80161614e-02,
       2.59938799e-02, -1.06608970e-02, 5.68812666e-03, -2.29897909e-03,
       -9.50686261e-03, -1.46995140e-02, -1.21941371e-02,
       -1.30249579e-02, -1.29104396e-02, -1.47001212e-02,
       -1.42071489e-02, -6.91304263e-03, -1.46736205e-02,
       -2.19349749e-02, -5.15849330e-03, -1.20387471e-03, 8.28257482e-03,
       2.30759699e-02, 1.24750705e-02, 6.11369207e-04, 1.53545365e-02,
       7.58418813e-03, -1.10390102e-02, -3.15530263e-02, -1.27789136e-02,
       -1.45790484e-02, -3.02952621e-02, -2.84250658e-02,
       -2.41620000e-02, -1.09309331e-02, -2.45339163e-02,
       -3.79443988e-02, -4.76148352e-03, 7.17766769e-03, 3.61428857e-02,
       1.30448053e-02, 1.21331085e-02, -1.31000131e-02, 8.55982862e-03,
       -8.26264266e-03, -1.55113880e-02, -2.21469998e-02,
       -2.18240824e-02, -2.29633935e-02, -2.45092809e-02,
       -5.16039096e-02, -4.11469452e-02, -1.95242967e-02,
       -9.82924085e-03, -1.21811591e-02, -1.00301392e-03, 1.08933933e-02,
       1.33160502e-02, 1.68248378e-02, -1.33148720e-03, 1.31575670e-02,
       2.15278734e-02, 1.76149271e-02, 1.77808963e-02, -1.78750362e-02,
       -7.38147553e-03, -9.67103336e-03, -1.42876254e-02,
       -3.34741771e-02, -5.26354350e-02, -3.26328538e-02,
       -1.90776605e-02, -2.61204150e-02, 4.44858037e-02, 5.58120310e-02,
       6.49406239e-02, 4.60161641e-02, 6.60985755e-03, 9.49419942e-03,
       9.56578460e-03, 9.32322815e-03, 1.20421229e-02, -9.87213850e-03,
       4.70171496e-03, -1.27899833e-03, 1.86910722e-04, -1.88201871e-02,
       2.46090395e-03, -5.51831489e-03, -7.46136997e-03, -3.79267684e-03,
       -1.45755429e-02, 6.27242774e-03, -2.98557105e-03, -1.83423539e-03,
       -4.06159870e-02, -1.22460872e-02, -2.97176722e-03,
       -1.70816593e-02, -1.72601528e-02, 2.03920882e-02, 5.26225492e-02,
       4.55863215e-02, 2.02495698e-02, -2.23875027e-02, -5.92904165e-03,
       -1.79301389e-02, -1.75525397e-02, -1.58094559e-02, 1.49493506e-02,
       5.35889082e-02, 3.89866270e-02, 1.09382737e-02, -4.60139029e-02,
       -1.19853448e-02, -1.31787844e-02, -9.92415845e-03,
       -1.23311738e-02, -3.08717601e-03, 1.30756581e-02, 1.92876533e-02,
       1.88683569e-02, 1.69082936e-02, 3.50622199e-02, 1.36787444e-02,
       2.16176687e-03, -3.02267121e-03, -2.24930346e-02, -1.21915797e-02,
       -1.40296631e-02, -3.25319096e-02, -3.61920074e-02,
       -2.11839061e-02, -2.04547048e-02, -1.29018323e-02,
       -1.91559102e-02, 9.16095264e-03, 5.01350947e-02, 5.10692298e-02,
       5.44600636e-02, 4.68399562e-03, 2.62922812e-02, 2.50665424e-03,
       1.09342905e-02, 5.29418327e-03, -2.30425019e-02, -2.13219924e-03,
       -1.27822636e-02, -3.89240757e-02, -5.36525436e-02,
       -2.06315089e-02, -2.13492848e-02, -1.53185800e-02,
       -2.22474113e-02, 1.84128573e-03, 1.25438571e-02, 1.16463723e-02,
       -7.13781314e-03, -1.48591409e-02, 3.18482481e-02, 9.07673314e-03,
       1.32572353e-02, 5.64627303e-03, -1.54077485e-02, 4.04705433e-03,
       7.47293001e-04, -9.42396000e-03, 8.77959933e-03, -2.51836167e-03,
       -1.21463360e-02, -6.81208353e-03, -1.50629496e-02, 1.02196336e-02,
       2.35998929e-02, 1.75543427e-02, -8.46577529e-03, -3.54381725e-02,
       4.28081043e-02, 1.00010931e-02, 3.28862923e-03, 1.50762184e-03,
       -9.19152237e-03, 8.87251645e-03, 2.91979726e-04, -1.75581705e-02,
       -3.05898930e-03, -1.97221544e-02, -2.02983767e-02,
       -1.59326978e-02, -2.04204451e-02, 2.77972082e-03, 2.01713722e-02,
       9.33774840e-03, -1.79877761e-03, 2.02736892e-02, -4.48543672e-03,
       -1.58442799e-02, -1.73969870e-03, -1.41256000e-03, 6.10053353e-03,
       2.34067198e-02, 8.54366459e-03, -8.23961012e-03, 6.59279851e-03,
       6.62060629e-04, -1.71382818e-02, -6.86406484e-03, 4.48376260e-04,
       -3.48789641e-03, 3.29057090e-02, 1.32219912e-02, -9.75969713e-03,
       5.97264245e-03, -1.88056920e-02, -1.10174743e-02, -3.98559077e-03,
       -9.94180609e-03, 1.00943539e-02, 3.58001404e-02, 1.75810046e-02,
       -2.31804904e-02, -5.84795140e-03, -2.46860944e-02,
       -1.80725567e-02, -1.65106840e-02, -6.32374594e-03,
       -7.69358754e-01 ]
