%YAML:1.0
---
detector: !!opencv-object-detector-hog
   winSize: [ 64, 64 ]
   blockSize: [ 16, 16 ]
   blockStride: [ 8, 8 ]
   cellSize: [ 8, 8 ]
   nbins: 9
   derivAperture: 1
   winSigma: 4.
   histogramNormType: 0
   L2HysThreshold: 2.0000000000000001e-01
   gammaCorrection: 1
   nlevels: 64
   signedGradient: 0
   SVMDetector: [ -1.90871861e-02, -5.62312780e-03, -1.07618459e-02,
       -2.12788414e-02, 3.01228799e-02, -1.21893799e-02, -1.12889968e-02,
       7.48239597e-03, -1.63404178e-02, -6.34061312e-03, 6.41235430e-03,
       -4.24535619e-03, -2.19575018e-02, 1.18579334e-02, -1.68599654e-02,
       -1.68838538e-02, 2.40817200e-02, -2.77323509e-03, 6.31879410e-03,
       1.90060411e-03, 2.08944292e-03, 1.49614401e-02, 9.41658858e-03,
       7.45526282e-03, -1.17776701e-02, 1.32103721e-02, 6.76093483e-03,
       -4.59440611e-03, 4.54595732e-03, 1.12030739e-02, 4.36277129e-03,
       6.97045121e-03, -1.71713382e-02, -1.18615339e-02, 2.04224605e-02,
       -7.50173291e-04, -3.71326804e-02, -3.13852914e-03,
       -8.54413211e-03, -3.41620632e-02, -2.03318559e-02,
       -1.29966671e-02, -2.40477789e-02, -1.86681189e-02,
       -4.67016324e-02, 2.05475334e-02, 3.89237255e-02, 2.72643231e-02,
       2.21047495e-02, 2.28296313e-02, 6.11919612e-02, 4.72004712e-02,
       2.49054451e-02, -1.66418357e-03, -3.21388766e-02, -1.19256051e-02,
       -2.77463091e-03, -1.88905932e-02, -1.74061470e-02,
       -3.46862860e-02, -2.05061361e-02, -3.13553140e-02,
       -4.09003645e-02, 2.29693055e-02, 2.82708593e-02, 2.20887717e-02,
       -2.03663036e-02, 3.11541557e-02, 2.99875643e-02, 6.06472977e-03,
       -8.72188061e-03, -5.04163094e-03, -3.42330858e-02,
       -2.06779726e-02, -3.96744944e-02, -4.84614260e-02,
       -1.39246285e-02, -1.43742410e-03, -2.09061243e-02,
       -8.58477503e-03, -3.71390842e-02, 2.85121854e-02, 4.85641137e-02,
       2.79718079e-02, 3.17995287e-02, 3.75329815e-02, 4.98380847e-02,
       8.80482048e-02, 7.74291605e-02, 5.65474443e-02, -2.58542653e-02,
       -2.16831733e-02, -3.84029970e-02, -6.70416653e-02,
       -5.06283939e-02, -4.33770232e-02, -4.94694412e-02,
       -4.83203866e-02, -3.81262861e-02, 5.29409503e-04, 1.28725842e-02,
       2.73929890e-02, -1.46286478e-02, -1.55543741e-02, -8.31606914e-04,
       2.85262913e-02, 5.68922004e-03, 1.77268870e-04, -5.24581736e-03,
       5.92422625e-03, -8.85054469e-03, -1.56530272e-02, 1.49138030e-02,
       3.06749586e-02, 4.39356193e-02, 5.60151711e-02, 2.22205706e-02,
       -1.41253998e-03, -1.14954757e-02, -1.61807369e-02,
       -3.25370133e-02, -7.12950155e-02, -2.13068500e-02, 2.99780779e-02,
       4.41020019e-02, 2.31427737e-02, -1.69121623e-02, -1.14297206e-02,
       -1.05010998e-02, -8.63467902e-03, -2.41180807e-02, 2.41183322e-02,
       1.03578239e-03, -1.11136818e-02, -2.47833226e-02, -9.02112294e-03,
       -2.64239181e-02, -1.76488236e-02, -3.98123786e-02,
       -5.08021303e-02, -2.43767537e-02, -2.15109494e-02,
       -1.38033582e-02, -1.89053044e-02, 3.18276621e-02, -5.38932346e-03,
       -2.94793257e-03, -2.00336232e-04, -1.82328001e-02, 4.48298827e-02,
       5.16836718e-02, 4.62932251e-02, 3.92119326e-02, -2.16641668e-02,
       -3.31149437e-02, -2.95773856e-02, -2.32005250e-02,
       -4.01448794e-02, -4.06183116e-02, -3.11869960e-02,
       -2.31333282e-02, -9.68051422e-03, 4.76443470e-02, 7.85643328e-03,
       1.28511796e-02, 8.39556661e-03, 8.64451285e-03, 2.37746127e-02,
       4.32481728e-02, 3.55680883e-02, 4.64653373e-02, -2.42348742e-02,
       -3.31517719e-02, -2.56046057e-02, -2.91498248e-02,
       -2.40925476e-02, -3.34930159e-02, -2.38651894e-02,
       -3.24023776e-02, -2.64165644e-02, 6.24245033e-03, 1.61737781e-02,
       1.31470999e-02, 3.02025471e-02, -8.95780418e-03, -4.83852159e-03,
       6.64084451e-03, 1.76978372e-02, 1.91527456e-02, -3.01492512e-02,
       -1.30604561e-02, -2.31241323e-02, -2.18231697e-02,
       -2.20438503e-02, -2.99803428e-02, -2.03914326e-02,
       -8.11418705e-03, -2.35621817e-02, 2.34268568e-02, 2.85832379e-02,
       1.68845505e-02, 2.16339212e-02, 2.90653743e-02, 1.52644180e-02,
       3.28661390e-02, 1.47572486e-02, 2.48817708e-02, -5.44185005e-03,
       -6.23400789e-03, -1.91097576e-02, -2.39654314e-02, 2.55729035e-02,
       -6.86464692e-03, -7.44103780e-03, -1.64272019e-03, 4.23044013e-03,
       -7.88223231e-04, -5.90862287e-03, -1.46558685e-02, 4.60782647e-03,
       5.60066616e-03, -7.52611412e-03, -6.91296719e-03, 7.65347900e-03,
       -1.00362126e-03, -1.33038433e-02, -1.72523111e-02,
       -4.88286430e-04, -1.60479378e-02, 3.27046700e-02, -3.30806859e-02,
       -2.87826993e-02, -2.83346288e-02, -1.47611191e-02, 1.70924943e-02,
       6.32516341e-03, 7.12752761e-03, 1.57313459e-02, 3.23648117e-02,
       1.68379620e-02, -6.35877391e-03, 1.14798695e-02, 1.70307029e-02,
       2.05028988e-02, 5.02446853e-03, 2.37145051e-02, 1.00710858e-02,
       3.84349115e-02, -1.60956532e-02, -5.34687331e-03, -1.18857464e-02,
       9.91209690e-03, -4.12315177e-03, -1.34271244e-03, -4.91077686e-03,
       2.04732679e-02, 2.67136525e-02, 1.31711792e-02, -1.12742027e-02,
       1.91031639e-02, 1.74349993e-02, -3.16127483e-03, -2.90300208e-03,
       9.35236830e-03, -3.44100199e-03, 4.97224554e-03, -9.82714817e-03,
       8.17945972e-03, 3.00094709e-02, 3.57283503e-02, -1.63175277e-02,
       1.43978279e-02, -3.03806062e-03, 1.09175779e-02, 5.52917086e-03,
       -1.55839641e-02, -6.77140011e-03, -2.34883907e-03,
       -1.93043798e-02, 2.89135845e-03, 8.38667154e-03, 5.81405708e-04,
       9.76381532e-04, 2.76313163e-02, -9.91730485e-03, 2.42670998e-02,
       2.45171543e-02, 1.57836080e-02, -2.80252378e-02, -2.41013840e-02,
       -1.58894006e-02, -2.27923840e-02, -2.20618583e-02,
       -2.11544521e-02, -1.12859448e-02, -9.86700971e-03,
       -1.73882693e-02, 1.03221359e-02, 1.86013393e-02, -2.60853837e-03,
       -1.08994255e-02, -7.10880340e-05, 1.69029552e-02, 1.07979495e-02,
       3.73798888e-03, -2.63725733e-03, -4.22768183e-02, -3.18623707e-02,
       -2.47433526e-03, -1.16532892e-02, -1.69012975e-02,
       -1.99315660e-02, -1.57859232e-02, -8.99080560e-03,
       -4.13512401e-02, 4.07147594e-02, 3.70733887e-02, 4.96652164e-02,
       6.19337969e-02, 3.38305160e-02, 3.15348804e-02, 1.94596983e-02,
       5.05398773e-02, 3.60711552e-02, -4.08099815e-02, -2.93546673e-02,
       -5.68618514e-02, -5.55887185e-02, -4.11926173e-02,
       -2.57470086e-02, -4.99715582e-02, -3.99929248e-02,
       -3.74293588e-02, -1.49475923e-02, -5.74205862e-03,
       -5.54042729e-03, -4.56641335e-03, -4.10693176e-02, 2.71538291e-02,
       1.25563480e-02, -5.62907569e-03, -1.56710446e-02, -1.88768450e-02,
       -1.56192491e-02, -5.25643528e-02, -2.26184893e-02,
       -3.23591158e-02, -4.33723442e-02, -3.07998639e-02,
       -2.50770897e-03, -1.85391493e-02, 5.14138117e-02, 5.86312264e-02,
       5.30475676e-02, 2.69930009e-02, 4.01511788e-02, 3.49167772e-02,
       5.61688952e-02, 6.52035847e-02, 5.43433689e-02, -1.18593285e-02,
       -2.63148453e-02, -3.63765471e-02, -2.27258801e-02,
       -5.35934754e-02, 4.29825671e-03, -3.98989692e-02, -4.09268960e-02,
       -2.66127065e-02, -1.28757022e-02, -2.89417505e-02,
       -3.75025049e-02, -2.66163591e-02, -4.14761081e-02,
       -1.64235234e-02, -2.54030935e-02, -3.88035886e-02,
       -2.70394366e-02, 3.42662854e-04, -7.13919243e-03, -4.25286213e-04,
       1.90091189e-02, 4.57261829e-03, 3.00871059e-02, 7.06598302e-03,
       -1.14553515e-02, 4.45230445e-03, 2.64245580e-04, -4.62565338e-03,
       1.37200803e-02, 8.55925214e-03, 1.15144104e-02, 3.99185857e-03,
       1.95335280e-02, -6.10892475e-03, 1.13780657e-02, 1.78762972e-02,
       -5.77553129e-03, -1.15273902e-02, -6.19544834e-03,
       -4.88336794e-02, -1.64613035e-02, 1.35269796e-03, 5.36868023e-03,
       7.35507626e-03, -4.32181545e-02, -5.32750860e-02, -4.68331203e-02,
       -4.51077670e-02, -6.65524453e-02, -5.79289123e-02,
       -5.30107357e-02, -4.29136977e-02, -5.56163006e-02, 5.41830957e-02,
       4.18701842e-02, 6.56583831e-02, 5.85246980e-02, 3.31411958e-02,
       4.06597480e-02, 1.06364883e-01, 9.34629515e-02, 8.87897611e-02,
       -3.47001217e-02, -2.99543794e-02, -9.54915956e-03,
       -1.87003314e-02, -2.56581232e-02, -3.86297852e-02,
       -2.92604603e-02, -1.89768989e-02, -3.25432569e-02,
       -9.84233455e-04, -1.17746247e-02, -4.57496941e-03,
       -1.65684856e-02, -1.57168861e-02, -3.95899732e-03, 4.57645301e-03,
       2.99122487e-03, -3.37276265e-06, -1.50761502e-02, -2.87435036e-02,
       -3.44717614e-02, -4.18552011e-02, -2.70620119e-02,
       -3.56034786e-02, -3.26047167e-02, -3.62977125e-02,
       -1.39039690e-02, 3.62459086e-02, 2.06170119e-02, 4.97611128e-02,
       4.28421237e-02, 3.83010320e-02, 3.16780210e-02, 2.41358280e-02,
       5.90132475e-02, 4.99179438e-02, -3.04427594e-02, -2.13888232e-02,
       -2.72654779e-02, -8.42083432e-03, -2.00938676e-02,
       -1.35323312e-02, -2.49821842e-02, -1.85700189e-02,
       -2.84713823e-02, 1.01573030e-02, -9.44876019e-03, -7.49536511e-03,
       1.01501411e-02, 1.77697223e-02, -4.39771358e-03, -2.88896891e-03,
       -2.87631038e-03, 1.18472977e-02, 4.63842461e-03, 2.67434916e-06,
       1.05193758e-03, -3.49999894e-03, 1.72341918e-03, -1.09785702e-02,
       -2.35137437e-03, -3.15391123e-02, -2.05257069e-02, 1.20728249e-02,
       1.62404031e-02, 1.03706596e-02, 2.32200027e-02, -4.04328248e-03,
       8.96900054e-03, 2.54470874e-02, 2.08529886e-02, 1.48009537e-02,
       2.91570020e-03, 1.98616106e-02, -2.67042487e-04, -2.87381206e-02,
       8.48812144e-03, -1.52333407e-02, -7.71051086e-03, -2.92899297e-03,
       -3.04376474e-03, -2.41813082e-02, 1.59433130e-02, -7.55814090e-03,
       6.79514278e-03, 2.33895108e-02, -2.42352649e-03, -3.38678970e-03,
       -2.07119127e-04, -2.94265132e-02, -1.08350758e-02, 2.38285773e-02,
       9.08194296e-03, 8.59687291e-03, 2.91379169e-02, 1.01491166e-02,
       2.00537127e-02, 1.08080022e-02, -1.30800707e-02, -1.87139548e-02,
       7.70740956e-03, -4.57107322e-03, 6.88079558e-03, 2.57537758e-04,
       -4.44380380e-03, -1.09795080e-02, -3.76341632e-03,
       -1.82895306e-02, 4.53121727e-03, 2.42207833e-02, 3.27759683e-02,
       2.44512241e-02, 4.70081605e-02, 2.45281421e-02, 3.98050249e-02,
       3.79359461e-02, 6.79537843e-05, -5.20026945e-02, -3.16182859e-02,
       -3.00121568e-02, -4.04869653e-02, -6.06705882e-02,
       -3.04670054e-02, -3.89290974e-02, -2.91895662e-02,
       -4.83683199e-02, 4.96669812e-03, -1.10154869e-02, -5.17290365e-03,
       9.59063787e-03, 2.88749821e-02, 5.92767540e-03, 3.76301305e-03,
       3.36066745e-02, 1.53919458e-02, -5.73765524e-02, -3.33035551e-02,
       -2.20775772e-02, -3.18114497e-02, -4.91534919e-02,
       -2.95796935e-02, -3.53822410e-02, -3.02555710e-02,
       -4.97480407e-02, 1.94467511e-02, 5.93907759e-02, 6.58228472e-02,
       8.06963816e-02, 5.87165132e-02, 8.06350783e-02, 4.50945385e-02,
       4.33938876e-02, 5.22319525e-02, -2.76245922e-02, -1.98244061e-02,
       -3.63520347e-02, -5.26203066e-02, -5.59342876e-02,
       -5.97665831e-02, -3.32768150e-02, -5.48971165e-03,
       -2.45252382e-02, 1.43730408e-02, 3.06306295e-02, 4.13749553e-02,
       -3.22215888e-03, -1.34695861e-02, -1.85809042e-02, 1.34269083e-02,
       2.68976986e-02, 2.09131688e-02, -1.50803933e-02, 1.14912838e-02,
       -3.44686396e-03, -9.39591415e-03, -2.55179428e-03,
       -3.81474458e-02, -2.17116866e-02, -1.21438438e-02, 5.03735524e-03,
       4.77123968e-02, 5.59806451e-02, 5.08577935e-02, 2.71690693e-02,
       -5.23160771e-03, -1.10466154e-02, 2.78520342e-02, 4.91849706e-02,
       6.42369837e-02, -2.19310750e-03, -4.98122070e-03, 1.61219593e-02,
       -9.83999204e-03, 9.50560998e-03, 1.78617425e-02, -1.15577253e-02,
       -4.72398428e-03, 4.00818372e-03, -1.56331749e-03, -1.37180462e-02,
       1.76006518e-02, -2.12107673e-02, -2.01581977e-02, -8.90851859e-03,
       2.21853834e-02, 1.67266056e-02, 2.43063234e-02, 3.11009362e-02,
       1.83363091e-02, 1.72637142e-02, 1.41274685e-03, -9.03376285e-03,
       8.11718404e-03, -8.52922210e-04, 1.52131366e-02, 2.57750805e-02,
       3.75033356e-02, 3.32174748e-02, 3.12790051e-02, -2.30420195e-02,
       -1.17588034e-02, -1.52396876e-02, 4.14811969e-02, 5.33028618e-02,
       5.09558991e-02, 9.33541264e-03, -2.26073852e-03, 3.24773863e-02,
       -1.19205248e-02, -5.03156297e-02, 5.01722749e-03, 7.00920522e-02,
       6.48761541e-02, 5.64602800e-02, -4.54109497e-02, -3.21499780e-02,
       -1.51335970e-02, -2.69987416e-02, -5.03949858e-02,
       -3.19691002e-02, -3.53909284e-02, -2.87566371e-02,
       -3.78392600e-02, 4.18369807e-02, 4.01659682e-02, 8.26023445e-02,
       3.59725766e-02, 3.61350589e-02, 5.69721945e-02, 1.35378435e-01,
       1.29242271e-01, 9.24902409e-02, -3.47461849e-02, -1.83852352e-02,
       4.95256903e-03, -2.73810606e-02, -3.66739482e-02, -8.34032893e-03,
       -6.75005978e-03, -1.29900062e-02, -3.12031247e-02, 9.86784231e-03,
       1.65316183e-02, 3.59259136e-02, 1.90501064e-02, 1.57249365e-02,
       2.21917797e-02, 3.59602622e-03, 2.97334883e-02, 3.20175700e-02,
       -4.41189930e-02, -3.15086432e-02, -4.51983325e-02,
       -4.93223183e-02, -2.90738288e-02, -1.03969453e-02,
       -3.92300561e-02, -3.41411605e-02, -4.20010015e-02, 2.85912883e-02,
       2.13876329e-02, 4.87467125e-02, 4.05486338e-02, 1.52243935e-02,
       3.82291861e-02, 5.56231439e-02, 2.95398831e-02, 4.32850718e-02,
       -2.74920985e-02, -3.55615653e-02, -6.66513965e-02,
       -5.69958054e-02, -4.25221696e-02, -4.33111452e-02,
       -4.59325910e-02, -4.51968238e-02, -5.14919758e-02, 6.63681049e-03,
       1.96444187e-02, 2.07746215e-02, 1.51515612e-02, 1.22245690e-02,
       3.36571597e-02, 2.62098275e-02, 2.48911493e-02, 1.14319567e-02,
       -9.79416631e-03, -6.67581102e-03, -1.68247093e-02,
       -2.30388623e-02, 1.22615825e-02, -1.16842827e-02, -4.38276865e-03,
       2.64159963e-03, 3.96403763e-03, 8.30689166e-03, 2.90746633e-02,
       2.94219311e-02, 2.49071755e-02, 2.97494605e-02, 2.79924553e-02,
       2.26854626e-02, -1.79880124e-04, -8.87212437e-03, -1.12414854e-02,
       -1.06233452e-02, 1.27765874e-03, 8.15921184e-03, 3.16209532e-02,
       -6.04888937e-03, 3.17863468e-03, -1.45989563e-02, -1.16264531e-02,
       -1.06003992e-02, -2.72517838e-03, -1.67005491e-02, 2.20560823e-02,
       1.89697277e-02, -9.39108431e-05, -2.48684082e-02, -1.27927847e-02,
       -1.04620429e-02, -1.08649059e-04, 1.43345138e-02, 1.48548624e-02,
       1.92497354e-02, 3.28719206e-02, 1.26177846e-02, 1.73194855e-02,
       2.38743760e-02, 3.43969022e-03, -8.08407832e-03, -1.44915394e-02,
       -2.97961701e-02, -6.54647406e-03, 2.67670024e-03, 2.27467250e-02,
       -1.60036199e-02, -2.07197503e-03, -1.23077910e-02, 1.01122940e-02,
       2.73639020e-02, 2.29636598e-02, 1.40546812e-02, 2.55887900e-02,
       2.33516376e-02, 1.60318762e-02, 1.58106349e-02, 2.90998491e-03,
       -5.07727936e-02, -3.29323970e-02, -3.45509015e-02,
       -4.43105213e-02, -3.42160054e-02, -4.11556922e-02,
       -3.62784714e-02, -2.97629088e-02, -5.15356138e-02, 2.71951361e-03,
       1.02327671e-02, 1.33554637e-02, 6.63359761e-02, 7.45232776e-02,
       5.78605048e-02, 7.15203164e-03, -7.86355697e-03, 7.57725583e-03,
       -5.10525890e-02, -3.29334885e-02, -3.66289280e-02,
       -4.55889590e-02, -5.20342886e-02, -5.07148951e-02,
       -4.16308604e-02, -3.76447216e-02, -5.36444299e-02, 1.16780670e-02,
       -7.88707845e-03, 9.28774755e-03, 4.69370559e-02, 3.75059918e-02,
       5.37395030e-02, 1.26297437e-02, 1.32223498e-02, 3.04343319e-03,
       -8.23636714e-04, 1.52919185e-03, -1.97422076e-02, -1.62856318e-02,
       1.10016046e-02, -2.64438875e-02, -2.68716253e-02, -2.09729206e-02,
       -5.63671871e-04, 4.03561331e-02, 1.31340390e-02, 9.58963949e-03,
       2.08907090e-02, 5.42154768e-03, -1.14001231e-02, -8.66926741e-03,
       6.76797563e-03, 3.81406397e-02, -4.76027001e-03, -2.62621325e-02,
       -2.90444512e-02, -4.01620977e-02, -6.15139166e-03,
       -2.67700497e-02, -2.35045739e-02, -1.21987588e-03,
       -5.93474554e-03, 4.12895493e-02, 3.66102532e-03, -1.05634015e-02,
       -2.00846344e-02, -2.16826098e-03, 1.49386795e-02, 1.01201572e-02,
       1.25928223e-02, 3.98002602e-02, 1.70305800e-02, 7.23454729e-03,
       2.37656245e-03, 1.42589863e-02, -3.16529744e-03, 2.00387766e-03,
       4.43881098e-03, 4.51819273e-03, 8.11174233e-03, 3.06021031e-02,
       3.52253132e-02, 3.84449661e-02, -1.88243221e-02, -9.90523119e-03,
       -1.09017566e-02, 4.12065685e-02, 3.20628248e-02, 2.76676062e-02,
       9.85281914e-03, 3.36173945e-03, -1.05633598e-03, -6.04901696e-03,
       -2.02746391e-02, 1.62370224e-02, -1.52307027e-03, 7.16748135e-03,
       1.86206717e-02, 2.97847372e-02, 3.14637311e-02, 3.00657973e-02,
       -2.47680042e-02, -1.41265374e-02, -2.72636767e-02, 2.63411533e-02,
       2.87974961e-02, 3.26901563e-02, 2.92628109e-02, 3.37830111e-02,
       9.16959196e-02, 3.96674909e-02, 2.96306927e-02, 5.95938005e-02,
       1.01625167e-01, 5.21488003e-02, 3.39660496e-02, -2.75778510e-02,
       -3.70917022e-02, -2.63023167e-03, -1.56220151e-02,
       -2.23970842e-02, -9.25453007e-03, -1.35080582e-02,
       -2.63937563e-02, -3.45904306e-02, 3.98679972e-02, 6.19213544e-02,
       9.78778228e-02, 4.43018861e-02, 2.93041132e-02, 3.24095488e-02,
       8.63524899e-02, 3.63294855e-02, 3.21629569e-02, -3.72647680e-02,
       -2.66069323e-02, -2.27194820e-02, -2.13812403e-02,
       -2.80214697e-02, -2.95548495e-02, -4.64339787e-03,
       -3.47036235e-02, -2.79605929e-02, 9.81559139e-03, 3.35766189e-03,
       4.66816425e-02, 6.34551719e-02, 3.83792222e-02, 5.21194041e-02,
       4.73439097e-02, 5.61975362e-03, 4.27403254e-03, -2.59866826e-02,
       -3.37745287e-02, -4.78863642e-02, -2.70548128e-02,
       -1.04885362e-02, -3.40540521e-02, -4.09577228e-02,
       -3.32237333e-02, -4.01738845e-02, 1.15255024e-02, 8.33688024e-03,
       4.51915599e-02, 3.96659188e-02, 1.37630785e-02, 5.68828806e-02,
       5.06892279e-02, 6.29337505e-03, 1.63681004e-02, -4.27122787e-02,
       -3.79943848e-02, -4.91570570e-02, -3.51488329e-02,
       -2.14008391e-02, -3.09906341e-02, -5.39648272e-02,
       -3.69779617e-02, -2.45196000e-02, 3.30135837e-04, 1.45634394e-02,
       1.63215436e-02, 2.66084354e-02, 4.66925316e-02, 1.45089570e-02,
       6.20122999e-03, 4.19781078e-04, -8.11980106e-03, -1.25442017e-02,
       -2.16946728e-03, 1.34454668e-02, 2.28985045e-02, 2.23460849e-02,
       -2.96460558e-03, -1.08952699e-02, -1.18317930e-02,
       -1.40745072e-02, -7.71889696e-03, -3.89630697e-03, 7.29483971e-03,
       2.15186160e-02, 3.88927050e-02, 2.99848113e-02, 2.13176887e-02,
       2.02822182e-02, 5.55251678e-03, -1.31699331e-02, -1.39620295e-02,
       -6.52173394e-03, 3.75338178e-03, 2.64244750e-02, 2.55003627e-02,
       1.69381164e-02, -1.24679922e-04, -7.99729489e-03, -2.42143255e-02,
       -1.08202233e-03, -6.54548686e-03, -1.75021996e-03, 2.05063894e-02,
       7.19307829e-03, -6.20257249e-03, 6.69563748e-03, -2.31426470e-02,
       -1.10098030e-02, 3.46659347e-02, 3.86319794e-02, 2.70753466e-02,
       4.67614681e-02, 2.36463584e-02, 3.09070684e-02, 2.22197510e-02,
       -3.76859144e-03, -2.62968559e-02, 2.09712452e-04, -3.38304904e-03,
       -3.52147757e-03, 1.13164936e-03, 3.41981114e-03, -3.54431034e-03,
       2.17440426e-02, -2.04588082e-02, -7.37776561e-03, 1.12466794e-02,
       2.32058298e-02, 6.03843480e-03, 3.16362046e-02, 7.82648288e-03,
       1.37464562e-02, 3.14238146e-02, -2.13636248e-03, -4.97523434e-02,
       -2.59052385e-02, -2.90919784e-02, -2.22358461e-02,
       -3.71480808e-02, -2.52215900e-02, -1.24999583e-02,
       -2.46677399e-02, -5.58697358e-02, 5.22840954e-02, 4.79978807e-02,
       4.76451442e-02, 8.95160064e-02, 7.73708448e-02, 9.07127112e-02,
       7.01860860e-02, 6.10375404e-02, 2.64970884e-02, -5.42114228e-02,
       -3.12823020e-02, -4.16434444e-02, -3.92116681e-02,
       -6.35791197e-02, -5.16094305e-02, -3.28662321e-02,
       -3.40760015e-02, -5.62279671e-02, 1.80657655e-02, 3.75569202e-02,
       9.18915775e-03, -4.16606665e-03, 9.14194621e-03, 2.37370422e-03,
       -6.86444947e-03, -9.02687199e-03, 9.14791878e-03, 4.85256221e-03,
       -5.07283350e-03, -1.15139410e-02, -2.17635892e-02, 1.64832119e-02,
       2.51300656e-03, -2.11031642e-04, 9.64364316e-03, -1.38884112e-02,
       6.60866648e-02, 5.65730594e-02, 3.95322181e-02, 6.76196953e-03,
       5.33913076e-03, 4.00382057e-02, 6.60460293e-02, 5.53122088e-02,
       4.83308844e-02, -3.07644121e-02, -8.70179757e-03, -3.67473774e-02,
       -6.95234388e-02, -6.71571493e-02, -6.15459904e-02,
       -4.52418812e-02, -2.32059620e-02, -3.18878293e-02, 2.35845838e-02,
       3.28953378e-02, 1.29008237e-02, -3.23948264e-02, -1.93147492e-02,
       -1.59784984e-02, 4.10869233e-02, 3.70630436e-02, 1.89082995e-02,
       2.93014217e-02, 1.91642698e-02, 1.29455968e-03, 2.10083388e-02,
       1.12476954e-02, 9.19792708e-03, 2.10464913e-02, 2.09965240e-02,
       3.31166536e-02, 5.33925220e-02, 5.75245321e-02, 5.29673509e-02,
       5.17909601e-03, -1.15145836e-02, -1.30732823e-02, 4.16247100e-02,
       3.36666405e-02, 3.72990929e-02, 9.27026942e-03, -6.01031771e-03,
       -1.98017359e-02, 1.12142060e-02, -1.12512400e-02, -1.55561035e-02,
       1.72777940e-02, -4.97574732e-03, 4.53926157e-04, 1.99822318e-02,
       1.16363643e-02, 1.62169170e-02, -2.68719718e-02, -2.61615310e-02,
       -2.50771847e-02, 1.71818994e-02, -1.53421685e-02, -4.46426403e-03,
       9.67672840e-02, 1.33803219e-01, 1.50782928e-01, 7.80418441e-02,
       2.49291584e-02, 3.70434895e-02, 8.53847340e-02, 3.76385227e-02,
       4.16571796e-02, -2.45091785e-02, -6.64754119e-03, 5.02930488e-03,
       1.02327224e-02, -2.63154078e-02, -1.68883204e-02, 1.43376002e-02,
       -6.28208928e-03, -2.95475591e-02, 6.15991279e-02, 6.68784901e-02,
       7.09037036e-02, -1.09536974e-02, -4.75124829e-02, -1.00093894e-02,
       4.10415269e-02, 1.41684059e-03, 1.13778254e-02, -4.14984860e-02,
       -3.51117104e-02, -4.33756001e-02, -4.59564365e-02,
       -4.77483869e-02, -3.85087132e-02, -1.63726211e-02,
       -3.74865346e-02, -5.04215099e-02, 4.52032350e-02, 3.53271775e-02,
       5.19613102e-02, 4.98590246e-02, 3.14855166e-02, 4.39518653e-02,
       5.01142219e-02, 2.61114296e-02, 2.49407515e-02, -4.59155031e-02,
       -3.62927020e-02, -3.88003476e-02, -3.40403803e-02,
       -1.67949423e-02, -5.04940115e-02, -5.78626767e-02,
       -3.07911318e-02, -2.96958275e-02, 3.38908285e-02, 3.02187037e-02,
       -3.74375097e-03, 1.14632603e-02, 6.57870201e-03, 1.08954478e-02,
       3.44357044e-02, 1.64891332e-02, 1.02413604e-02, -4.87180986e-02,
       -3.92203815e-02, -4.66296151e-02, -1.83170177e-02,
       -4.03474420e-02, -4.65841033e-02, -5.27979098e-02,
       -3.74124087e-02, -5.11648320e-02, -1.10494718e-02, 3.08969320e-04,
       2.17936728e-02, 3.12063489e-02, 3.37727927e-02, 1.88743379e-02,
       2.59107575e-02, 2.53649428e-02, 3.02785612e-03, -1.77043974e-02,
       -1.54667236e-02, 5.00316126e-03, -4.22108313e-03, 2.03370899e-02,
       4.82007815e-03, -9.13735188e-04, -1.17097599e-02, -1.30015817e-02,
       1.39876595e-02, 2.82342583e-02, 2.90170386e-02, 3.43277268e-02,
       1.23216948e-02, 2.19632592e-02, 1.94887985e-02, 2.03197636e-02,
       7.60321459e-03, 2.27384176e-03, 2.86976079e-04, -8.15461110e-03,
       -1.68741159e-02, 1.05684306e-02, -2.15340201e-02, -1.42414784e-02,
       -5.71320066e-03, -8.27990659e-03, -2.02807095e-02,
       -2.54930509e-03, -2.48368713e-03, -9.14761052e-03, 2.70856060e-02,
       1.23093072e-02, -1.66441139e-03, 9.61199496e-03, -1.95087269e-02,
       1.39118200e-02, 1.85291935e-02, 2.61795577e-02, -5.70625858e-03,
       2.44704057e-02, 6.37276052e-03, -1.81972876e-03, 2.95312610e-03,
       -3.55002645e-04, 1.49305360e-02, 2.00316738e-02, -1.50115974e-02,
       4.57799947e-03, 5.64864557e-03, 2.00699046e-02, -7.49907224e-03,
       -4.82403627e-03, -6.68032141e-03, 3.32047790e-02, 2.91385781e-02,
       8.48278869e-03, -1.27851274e-02, 3.66174802e-03, -2.28747097e-03,
       1.00300452e-02, -5.18985931e-03, -5.66419587e-03, -3.90633196e-02,
       -7.16307992e-03, -9.46369115e-03, -1.57213807e-02,
       -1.12435222e-02, -6.21907553e-03, -5.12427697e-03,
       -2.97936331e-02, -4.30662930e-02, 3.16819288e-02, 4.78745326e-02,
       1.97541546e-02, 3.29387374e-02, 4.19252850e-02, 6.67671412e-02,
       4.73181270e-02, 3.98260430e-02, 3.74729149e-02, -2.20117923e-02,
       -1.30147049e-02, -1.43815177e-02, -2.50786394e-02,
       -3.18240039e-02, -2.03261394e-02, -1.56394020e-02,
       -2.77199335e-02, -3.63221876e-02, -2.08937004e-03, 8.98260623e-03,
       1.26231406e-02, 1.45482644e-02, 6.00855052e-03, -1.00610945e-02,
       5.91886230e-04, 1.75004359e-02, 1.02951564e-02, -1.89361367e-02,
       -1.88642170e-03, -2.47599240e-02, -3.45991328e-02,
       -2.52278205e-02, -1.43347848e-02, -4.69375737e-02,
       -9.43276659e-03, -1.44318361e-02, 5.47414385e-02, 6.08102009e-02,
       5.38773574e-02, 5.66572808e-02, 3.99024040e-02, 3.21189687e-02,
       5.39367273e-02, 5.89139014e-02, 4.79722172e-02, -4.60338965e-02,
       -4.42620292e-02, -5.41670062e-02, -2.60037128e-02,
       -4.23354842e-02, -6.10806644e-02, -6.25000149e-02,
       -3.23617794e-02, -4.39522155e-02, -1.64391715e-02,
       -4.07764921e-03, 1.68192461e-02, 1.86647847e-02, -5.58807366e-02,
       -7.63013121e-03, 4.47123265e-03, -6.47453452e-03, -1.53543949e-02,
       8.11499171e-03, -1.08455718e-02, 9.65643208e-03, 4.90963273e-02,
       1.95950679e-02, 2.98517887e-02, 8.28910153e-03, -5.44764684e-04,
       3.80464969e-03, 1.12875653e-02, -3.70349246e-03, 1.96504258e-02,
       3.29871736e-02, 2.78173573e-02, 2.10837051e-02, 2.58925129e-02,
       1.07673416e-03, 3.21030384e-03, -2.90233884e-02, -4.27209623e-02,
       -3.72945108e-02, 2.31344369e-04, -6.99782893e-02, -2.40173526e-02,
       -2.77635846e-02, -2.82421391e-02, -1.77114252e-02,
       -3.16832587e-02, -4.03787680e-02, -2.53004748e-02,
       -3.14308628e-02, -5.77165037e-02, -3.95169668e-02,
       -3.46633792e-02, -3.12554799e-02, -1.92244835e-02, 8.63101482e-02,
       9.35676247e-02, 1.07292235e-01, 5.26025519e-02, 3.81395631e-02,
       7.56886750e-02, 6.59596547e-02, 4.28723507e-02, 5.43617755e-02,
       -2.37905048e-02, -8.68542027e-03, -1.51858591e-02,
       -2.89428364e-02, -2.10528653e-02, -1.01019628e-02,
       -2.35909084e-03, -2.30362322e-02, -2.47046724e-02, 1.14892982e-02,
       1.17236068e-02, 6.55351160e-03, -2.45715622e-02, -5.53187691e-02,
       -1.71118267e-02, -9.59493406e-03, -5.78345638e-03, 2.14646775e-02,
       -5.80396652e-02, -4.11298610e-02, -5.06145395e-02,
       -6.02856502e-02, -6.49975017e-02, -4.70560901e-02,
       -4.46967147e-02, -5.72597012e-02, -4.79294620e-02, 4.75659855e-02,
       5.56890517e-02, 2.85429955e-02, 3.49680707e-02, 4.14465629e-02,
       4.91768457e-02, 4.94116209e-02, 2.20022202e-02, 3.37013192e-02,
       -2.59211697e-02, -1.46221323e-02, -1.47903431e-02,
       -7.40370760e-03, -1.69079378e-02, -3.62992316e-04,
       -1.84070282e-02, -1.15621006e-02, -2.44431216e-02, 1.35444861e-04,
       3.25267646e-03, 9.99432150e-03, -2.14905059e-03, -1.45881986e-02,
       -1.89257246e-02, -2.77685281e-03, -8.33561737e-03,
       -2.48084031e-03, -1.25479205e-02, -3.55186053e-02,
       -3.22791077e-02, -3.80419903e-02, -2.58635618e-02,
       -4.49589342e-02, -3.25344428e-02, -2.79546175e-02,
       -1.94738600e-02, 7.98342563e-03, 1.65146980e-02, 2.37919409e-02,
       9.37804580e-03, 2.15523667e-03, 1.96454432e-02, 1.16448523e-02,
       1.74522456e-02, 7.10842479e-03, -8.23775586e-03, -1.16343435e-03,
       -4.15858254e-03, -1.42589221e-02, 7.09618768e-03, -2.14455742e-02,
       1.68259686e-03, 1.94745194e-02, -1.62128289e-03, 1.08922552e-02,
       -3.99500737e-03, -5.14218071e-03, 1.12440786e-03, 1.85478907e-02,
       1.72381420e-02, -8.56443308e-04, -9.57273971e-03, 6.91236788e-03,
       -1.89960822e-02, -3.00615281e-02, -2.99828057e-03,
       -1.10654822e-02, 6.31779199e-03, 7.55418150e-04, 4.15675621e-03,
       1.77692657e-03, 3.96349514e-03, 4.52818302e-03, 1.02794832e-02,
       -1.07493075e-02, 1.33867972e-02, 1.64644234e-02, 1.03925727e-02,
       1.81613592e-04, 3.55869019e-03, 6.02479978e-03, -4.46707988e-03,
       1.75859910e-02, -1.38558336e-02, -9.61013790e-03, 1.08847916e-02,
       5.33298217e-03, 8.85978248e-03, 3.26926610e-03, -5.23934979e-03,
       -1.31648174e-02, 1.02998512e-02, -1.76958237e-02, -1.58769377e-02,
       1.74523275e-02, -2.52507254e-02, -1.39960935e-02, -3.82401026e-03,
       -2.16835216e-02, 2.78216926e-03, 3.13229226e-02, -2.10699867e-02,
       -1.39532993e-02, 9.46661085e-03, -1.68639515e-02, -2.78321258e-03,
       6.67976169e-03, -2.32837535e-03, -3.81405316e-02, -2.74680015e-02,
       -2.21582279e-02, -3.38816494e-02, -1.53462039e-02,
       -1.61150228e-02, -4.15115803e-03, -1.09744612e-02,
       -3.23083848e-02, -1.06331026e-02, -6.93130167e-03, 2.48656282e-03,
       4.15164530e-02, 2.61105057e-02, -1.43729728e-02, 1.67973470e-02,
       2.08912566e-02, 1.21732950e-02, -4.71726879e-02, -1.75824352e-02,
       -3.06279305e-02, -1.75199676e-02, -3.26097496e-02,
       -3.34448405e-02, -9.46042035e-03, -6.43736310e-03,
       -3.98325436e-02, 1.17744501e-04, 2.58371197e-02, 4.18833867e-02,
       5.48792556e-02, 1.75932162e-02, 2.77314615e-02, 3.14793475e-02,
       3.89276780e-02, 2.10442208e-02, -3.59732397e-02, -4.14869972e-02,
       -4.77271862e-02, -3.25071998e-02, -4.29927893e-02,
       -5.89953661e-02, -3.58849652e-02, -1.95011031e-02,
       -2.51571927e-02, -3.31340008e-04, 6.49446435e-03, 2.56674718e-02,
       1.36298575e-02, -1.31710498e-02, -7.49356067e-03, 1.92488804e-02,
       1.42420949e-02, 3.38627654e-03, -3.88365127e-02, -1.08426278e-02,
       -3.28979641e-02, -5.89520484e-03, -1.47510320e-02,
       -5.59744127e-02, -4.98649701e-02, -2.76195761e-02,
       -3.87529545e-02, 4.98506278e-02, 7.40909800e-02, 7.78821185e-02,
       3.40407006e-02, 2.92356685e-02, 3.09561323e-02, 2.15462353e-02,
       4.58896570e-02, 2.96902433e-02, -2.07000449e-02, -7.19838403e-03,
       7.16825062e-03, 3.18732001e-02, -1.45323947e-02, -3.18908156e-03,
       -9.29344632e-03, -1.03113716e-02, -1.52476672e-02,
       -1.80565584e-02, -1.58456396e-02, -2.25086175e-02,
       -1.80304572e-02, -4.89286594e-02, -2.76713539e-02,
       -1.54723963e-02, -2.31630448e-02, -8.57308228e-03, 2.60888729e-02,
       5.87923676e-02, 4.90040816e-02, 1.80009212e-02, 7.15745520e-03,
       -1.90187637e-02, -1.27920574e-02, 4.65762848e-03, -2.26872880e-03,
       2.06287187e-02, 4.03169431e-02, 2.73118094e-02, -2.69867852e-02,
       -8.10991600e-02, -4.47034910e-02, -2.75476128e-02,
       -1.61870774e-02, -4.35480382e-03, 4.03131470e-02, 3.20155211e-02,
       3.97781767e-02, 3.15568633e-02, 8.81980266e-03, 1.60254929e-02,
       1.17651373e-02, 9.57042817e-03, 4.10820805e-02, -2.37817857e-02,
       -2.77804472e-02, -1.85208339e-02, -2.51409747e-02,
       -2.59520374e-02, -2.00196113e-02, -2.18323264e-02,
       -2.65328437e-02, -2.41736509e-02, 4.30362038e-02, 5.32263108e-02,
       6.11065663e-02, 4.95078936e-02, -2.29677949e-02, -1.42460503e-03,
       -4.85828752e-03, -3.71126737e-03, 3.83630693e-02, -1.35773709e-02,
       -2.82795429e-02, -3.67067903e-02, -4.53567058e-02,
       -4.08940203e-02, -3.20536830e-02, -2.94000823e-02,
       -3.86354364e-02, -2.63923518e-02, 2.16767024e-02, 1.60475057e-02,
       3.18167433e-02, 1.92878749e-02, 3.05993501e-02, 3.15153971e-02,
       1.69998109e-02, 2.70657148e-02, 2.06116717e-02, 7.39614712e-03,
       5.79324877e-03, -4.72748419e-03, -2.37145345e-03, 2.60477550e-02,
       -2.04678811e-02, -1.90685857e-02, -4.29821992e-03,
       -2.57925945e-03, 2.29496676e-02, 1.88919250e-02, 6.29452849e-03,
       -9.36214230e-04, -8.75035487e-03, 2.95403078e-02, 1.39083751e-02,
       1.39197940e-02, 7.64513342e-03, -2.40594149e-02, -1.22621553e-02,
       -1.91890206e-02, -2.99596917e-02, -2.17644013e-02,
       -2.63718273e-02, -2.28935685e-02, -1.32862385e-02,
       -3.03219948e-02, 1.91882718e-02, 1.49061577e-02, -2.35958141e-03,
       1.56449713e-02, 3.32256295e-02, 1.07043842e-02, 9.60395485e-03,
       9.53568146e-03, 1.84226371e-02, 1.32386796e-02, -8.31802189e-03,
       -6.12982735e-03, -1.38846068e-02, 3.28337625e-02, 4.45293263e-03,
       2.27228459e-02, 6.87911501e-03, 1.85343735e-02, 1.62347010e-03,
       6.66684145e-03, -2.59976427e-04, -1.08101200e-02, -4.72678710e-03,
       7.13369297e-03, -9.41820629e-03, -3.77881108e-03, 3.24818911e-03,
       -1.26188518e-02, -2.27149259e-02, -2.31746100e-02,
       -3.25094126e-02, 4.34230976e-02, -1.37184830e-02, 7.67690176e-03,
       -1.59412194e-02, -1.27866343e-02, -9.97326255e-01 ]
