%YAML:1.0
---
detector: !!opencv-object-detector-hog
   winSize: [ 64, 64 ]
   blockSize: [ 16, 16 ]
   blockStride: [ 8, 8 ]
   cellSize: [ 8, 8 ]
   nbins: 9
   derivAperture: 1
   winSigma: 4.
   histogramNormType: 0
   L2HysThreshold: 2.0000000000000001e-01
   gammaCorrection: 1
   nlevels: 64
   signedGradient: 0
   SVMDetector: [ -2.08144132e-02, -2.12259833e-02, -2.12645065e-02,
       8.19741096e-03, -2.71966234e-02, 7.08027370e-03, 1.39103103e-02,
       1.15026266e-03, -1.36658200e-03, 8.44043400e-03, 1.37375817e-02,
       1.23691279e-02, 7.08413273e-02, 2.52568088e-02, 3.16280574e-02,
       9.54352766e-02, 5.99371232e-02, 9.77357570e-03, -5.66119037e-04,
       -2.24783085e-02, -4.57951427e-02, -7.77193438e-03,
       -4.43916069e-03, 2.55660880e-02, -1.95444375e-02, -1.49460295e-02,
       7.06109917e-03, 1.83046702e-02, 7.95892254e-03, -7.96062127e-03,
       2.56627854e-02, -1.57708693e-02, 6.17648102e-03, 5.58248758e-02,
       4.33038920e-02, 1.14964591e-02, 1.33602060e-02, 1.47618940e-02,
       -6.29411638e-03, 4.84123006e-02, 1.36652021e-02, 3.40456404e-02,
       8.41348618e-02, 2.51621604e-02, -4.14111419e-03, 3.85618396e-02,
       2.35410277e-02, 2.52686366e-02, 5.51625788e-02, -7.82501418e-03,
       -2.37451885e-02, 3.60039063e-02, 2.11594552e-02, 2.66289320e-02,
       -8.35100655e-03, -8.00916273e-03, -3.08493152e-02,
       -7.65995309e-03, -3.94455716e-02, -1.91389397e-02, 2.61476599e-02,
       4.88504814e-03, -1.75703801e-02, 1.34490160e-02, 1.76173879e-03,
       2.42039468e-03, 1.12999724e-02, -6.46049753e-02, -4.66959774e-02,
       -2.33218353e-03, -1.07647907e-02, -2.58587068e-03, 1.98121723e-02,
       -5.20610344e-03, -1.27945840e-02, 4.65682819e-02, 2.00696718e-02,
       -3.18533108e-02, 1.36676151e-02, 1.09192310e-02, 2.05136947e-02,
       3.88455540e-02, 3.37359011e-02, 4.24840488e-02, 6.56262264e-02,
       -5.97468624e-03, -1.45181036e-02, 2.56293118e-02, -2.75587523e-03,
       3.74298473e-03, 3.96018708e-03, -1.70754436e-02, 6.85865805e-03,
       2.90621985e-02, -2.54036225e-02, -6.91889450e-02, -1.40973711e-02,
       -2.17010621e-02, 5.12071466e-03, 2.87711900e-03, -3.58133926e-03,
       5.50778322e-02, 3.21491286e-02, -1.15181440e-02, -1.34316310e-02,
       1.61575805e-02, -1.74234081e-02, 9.63878061e-04, 3.46762724e-02,
       5.25212660e-02, 2.04422008e-02, 4.60865162e-02, -2.46593170e-03,
       3.67350653e-02, 3.35757658e-02, -1.20271146e-02, 6.90407027e-03,
       -4.92242770e-03, 1.22857578e-02, -4.94193425e-03, 1.88987572e-02,
       -3.29474136e-02, 1.82030187e-03, -3.28076747e-03, -2.58407220e-02,
       -2.23308969e-02, 5.84846968e-03, 7.45308120e-03, 1.73686687e-02,
       5.32254465e-02, 4.75089438e-03, 2.10856125e-02, 3.34649980e-02,
       -1.46845337e-02, 9.53631196e-03, -1.89955942e-02, -6.19118847e-03,
       7.41036376e-03, 1.25369581e-03, -5.42980211e-04, -1.70784915e-04,
       5.23334835e-03, -1.97177362e-02, -7.11860415e-03, 2.39280984e-02,
       8.54808390e-02, 4.47138362e-02, 4.84084617e-03, -2.84716450e-02,
       -1.00225899e-02, -2.29500812e-02, -1.02006169e-02,
       -1.83853996e-03, -7.00318627e-03, 1.14669241e-01, 2.58737672e-02,
       -1.59739405e-02, -4.09361161e-02, -4.12527956e-02,
       -7.47273117e-02, -3.95945162e-02, -5.37320487e-02,
       -4.64588404e-03, 1.06275007e-01, 8.35152045e-02, 1.26421340e-02,
       -1.86069515e-02, 1.79938283e-02, 4.86663170e-03, -3.69147980e-03,
       -1.14114000e-03, -2.26969682e-02, 4.04361933e-02, 2.70858034e-02,
       -3.02555356e-02, -2.53641680e-02, -8.78204592e-03,
       -5.58826588e-02, -5.47010228e-02, -8.41914639e-02, 6.55700117e-02,
       1.76223233e-01, 8.15802738e-02, -1.34611158e-02, -6.04662709e-02,
       -3.72171812e-02, -5.96327148e-02, -2.92430371e-02,
       -2.88170222e-02, 3.05706616e-02, 1.66397601e-01, 8.14382657e-02,
       -2.50225198e-02, -4.85091060e-02, -4.52666655e-02,
       -3.84692140e-02, -2.83564497e-02, -5.61212413e-02, 2.59170476e-02,
       7.37873241e-02, 9.88793001e-03, -1.84821133e-02, -3.00473813e-02,
       -1.12249563e-02, -5.83884493e-02, -5.80778979e-02,
       -7.41247162e-02, -1.88911799e-02, 2.93707550e-02, 7.01604597e-03,
       -2.63025854e-02, -2.03102175e-02, -3.30497697e-02,
       -4.05165218e-02, -5.48707917e-02, -8.09332952e-02, 3.63783576e-02,
       1.22318797e-01, 7.26266056e-02, -2.94649944e-05, -3.56465951e-02,
       -7.08083156e-03, 7.28387968e-04, -9.05767269e-03, -4.43621241e-02,
       3.73538584e-02, 9.10610110e-02, 2.71644555e-02, -1.12367999e-02,
       -2.80125085e-02, -1.54260155e-02, -2.78811064e-02,
       -4.04419340e-02, -3.85096334e-02, -1.01394355e-02, 3.28102894e-02,
       2.24822946e-02, 1.01876687e-02, -1.13625433e-02, -7.29254214e-04,
       -8.10746104e-03, -1.14015453e-02, -4.65343520e-02, 1.47729032e-02,
       5.58238216e-02, -1.83838736e-02, 6.39326498e-03, 1.40746664e-02,
       8.43399111e-03, -2.93441322e-02, -3.89275812e-02, -4.49695326e-02,
       -1.01399459e-02, -3.27696167e-02, -6.17972016e-02, 1.97283836e-04,
       4.62933704e-02, 4.59373407e-02, -2.90496107e-02, -1.94921680e-02,
       -9.76390671e-03, 1.37227131e-02, 4.48425254e-03, -2.15419792e-02,
       4.99094389e-02, 5.60747599e-03, 1.86443515e-02, 2.89968569e-02,
       4.20183465e-02, 1.40279690e-02, -1.83751900e-02, -4.29186337e-02,
       -7.20677003e-02, -1.00680916e-02, 4.67274599e-02, 9.34738666e-03,
       -5.77289239e-02, -4.55051325e-02, -2.95383465e-02, 2.94645242e-02,
       1.18186893e-02, -2.72384118e-02, 2.62638703e-02, -8.33957363e-03,
       -5.29370876e-03, 3.99241311e-04, 2.23314650e-02, 1.21414233e-02,
       -4.08432167e-03, 9.16904304e-03, -1.21808331e-02, 3.60994227e-02,
       1.62856244e-02, 1.32120284e-03, 2.17127167e-02, 2.22942363e-02,
       -3.23165930e-03, 5.33136353e-03, 1.58052528e-04, -3.02825100e-03,
       3.55253108e-02, -3.12200431e-02, -3.64025496e-02, 1.03485826e-02,
       1.24407960e-02, 2.41554715e-03, 1.16098067e-02, -1.78367912e-03,
       -2.94267330e-02, 5.56139974e-03, 1.33788483e-02, -1.63900144e-02,
       4.03465796e-03, 1.68127175e-02, 7.56982109e-03, 3.30901707e-06,
       -2.08595358e-02, -3.47533524e-02, -1.24681164e-02,
       -1.92948841e-02, -4.29475866e-02, -2.84779747e-03, 1.73929147e-02,
       -1.46076048e-03, 8.97043850e-04, -1.44206556e-02, 9.52606276e-03,
       5.18331900e-02, -9.83625464e-03, -4.15196195e-02, -4.34242515e-03,
       -6.89192209e-03, -1.07551925e-03, 1.40310975e-03, -8.52847751e-03,
       4.92473580e-02, 8.28028992e-02, 1.90828945e-02, 2.99922843e-02,
       1.71996262e-02, -1.30419219e-02, 2.46840552e-03, -1.96402171e-03,
       -3.31922024e-02, -1.88476518e-02, 1.96882114e-02, -2.56793685e-02,
       -6.98349103e-02, -2.99659502e-02, 6.69277972e-04, -1.15758432e-02,
       -2.04373524e-02, -2.65873913e-02, 4.86835912e-02, 6.54609874e-02,
       1.72340835e-03, -4.20103818e-02, -4.07957844e-02, -4.42017727e-02,
       -2.68425122e-02, 2.73676813e-02, -6.07090723e-03, 1.07149417e-02,
       6.51137084e-02, -1.21917678e-02, 1.27877481e-02, -8.77769291e-03,
       -1.38966702e-02, 2.72918828e-02, 1.46020753e-02, 4.09885757e-02,
       4.39568125e-02, 1.77997053e-02, -6.44234475e-03, -1.45851150e-02,
       -1.14976596e-02, 8.08594516e-04, 2.95192283e-02, 2.26434972e-02,
       -6.93036010e-03, 4.50377502e-02, 7.88348988e-02, 3.06000337e-02,
       -9.75558255e-03, -2.33723596e-02, -1.99110042e-02, 3.64178866e-02,
       3.89752612e-02, 1.96808651e-02, 5.21759354e-02, -7.82860443e-04,
       -1.41795166e-02, -1.33298105e-02, -5.80499461e-03, 2.20189500e-03,
       4.29719351e-02, 1.30372273e-03, 6.00804836e-02, 4.43300903e-02,
       1.00382492e-02, -1.69478748e-02, 9.54573043e-03, 6.90821512e-03,
       2.31280979e-02, 3.80429476e-02, -2.43005045e-02, 4.41368595e-02,
       -5.08084707e-03, -3.04617826e-02, -4.71809646e-03,
       -1.74106727e-03, -2.99369581e-02, -2.97997724e-02,
       -4.37031910e-02, 8.83142278e-03, 5.47746234e-02, 3.23168747e-02,
       -8.04822985e-03, -8.00254755e-03, 8.52805912e-04, 5.26157254e-03,
       2.72019133e-02, 6.42586201e-02, -2.48764902e-02, -2.09380407e-02,
       -5.57186864e-02, -3.43321636e-02, 1.71838179e-02, -2.29447503e-02,
       -2.34188121e-02, -1.96472481e-02, -1.41858738e-02, 1.83033776e-02,
       7.13969395e-02, -2.31338032e-02, -4.71841218e-03, 1.56630222e-02,
       2.40733884e-02, -1.85897164e-02, -2.63097733e-02, -5.24550937e-02,
       2.29799971e-02, 4.32786867e-02, -9.85918846e-03, -3.25971544e-02,
       5.96388336e-03, -8.87500774e-03, -2.33677328e-02, -1.94773171e-02,
       -3.84593271e-02, -7.37764593e-03, 2.65561473e-02, -3.74221280e-02,
       8.80874600e-03, 1.81764551e-02, 1.33402208e-02, -1.33988643e-02,
       -2.26273760e-02, -4.16439213e-02, 4.68785781e-03, 1.12917013e-02,
       -4.02008146e-02, -3.33301686e-02, 1.34993307e-02, -6.80105155e-03,
       -2.84060631e-02, -1.30446646e-02, -4.47032303e-02, 1.24751348e-02,
       5.17736711e-02, -6.05126470e-03, 1.18273951e-03, 1.79782929e-03,
       5.08202519e-03, -1.55297704e-02, 2.29166984e-03, -1.94990337e-02,
       4.18727994e-02, 8.28761011e-02, -1.91751290e-02, 1.61115490e-02,
       3.54152881e-02, 1.94011442e-02, -2.79539898e-02, -1.71332955e-02,
       -2.86882799e-02, -1.63422839e-03, 2.26663314e-02, -4.29737307e-02,
       -1.46827465e-02, -6.13470003e-03, -4.29540919e-03,
       -2.52577215e-02, -6.18071249e-03, -3.17690857e-02, 3.49099864e-04,
       3.60185169e-02, -3.69353555e-02, -4.03109938e-03, -3.91435204e-03,
       1.01097524e-02, -4.08640653e-02, -2.20097136e-02, -4.03037444e-02,
       -1.37667861e-02, -3.98037098e-02, -7.02485442e-02,
       -3.10210860e-03, 7.33168796e-02, 2.33198050e-02, -4.38073315e-02,
       -3.75889875e-02, -3.46714109e-02, 3.80855426e-02, 2.40422077e-02,
       -5.93798235e-03, 6.07799739e-02, 1.09676952e-02, -2.40995875e-03,
       -2.02413518e-02, 3.04397941e-03, 1.23613123e-02, -6.81770965e-03,
       -1.04311586e-03, -5.22869900e-02, 1.91721367e-04, 4.31102626e-02,
       2.13152403e-03, -5.20231985e-02, -4.90200296e-02, -2.66627669e-02,
       1.44143570e-02, 3.47336903e-02, -1.71532370e-02, 2.37705652e-02,
       -4.06211019e-02, -3.03772427e-02, -2.44025141e-02, 7.55215716e-03,
       2.94564199e-03, 1.60480831e-02, -8.61719158e-03, -2.83697173e-02,
       7.83626456e-03, 5.02921306e-02, -1.50811567e-03, -1.22267744e-02,
       3.40700918e-03, 9.31413472e-03, -5.37765119e-03, -2.37662029e-02,
       -2.53308360e-02, -8.65846872e-03, 2.70887408e-02, -1.55201228e-02,
       2.20774347e-03, 1.37852086e-02, 3.86916078e-03, -3.82469269e-03,
       2.96303793e-03, -3.49276550e-02, -4.92558349e-03, -9.65938717e-03,
       -6.03680238e-02, -2.90812422e-02, 8.13621935e-03, 2.12055701e-03,
       -9.51879099e-03, -2.59173289e-03, -1.49526931e-02,
       -3.87128554e-02, -5.01141185e-03, -6.29937202e-02,
       -4.33538444e-02, 1.12805935e-03, 3.53082258e-04, 7.15876417e-03,
       -1.21169444e-02, -1.39252632e-03, 2.76308823e-02, -2.23116968e-02,
       -4.81574498e-02, -2.31252499e-02, -6.23660861e-04,
       -1.53316383e-03, -1.32674081e-02, -1.46553665e-02, 5.40009998e-02,
       8.93170834e-02, -8.94547813e-03, -3.38130705e-02, -4.42344919e-02,
       -3.96311991e-02, -2.02600267e-02, 6.97147334e-03, 5.85774845e-03,
       5.62675437e-03, -1.46795139e-02, -4.32909951e-02, -6.21758141e-02,
       -4.85878289e-02, -7.49135949e-03, -3.35063157e-03, 1.07881175e-02,
       -6.88683521e-03, 1.25721926e-02, 2.46924777e-02, -3.55479755e-02,
       -8.92369833e-04, -2.32806131e-02, -2.97221746e-02,
       -6.99523557e-03, -2.12641177e-03, -1.92041602e-02, 2.33025309e-02,
       7.37774670e-02, 2.42782254e-02, -3.03587422e-05, -2.84006502e-02,
       -3.47495265e-02, 9.92834941e-03, 1.39991613e-03, 1.24963345e-02,
       2.74222121e-02, 3.97452004e-02, 4.37566601e-02, 2.10856926e-02,
       -1.52646462e-02, -1.68842636e-02, -1.18944119e-03, 5.38381469e-03,
       -2.70497352e-02, -1.44144092e-02, 5.96572310e-02, 2.87659839e-02,
       4.15832438e-02, -9.34030581e-03, -3.01557928e-02, -1.98311778e-03,
       -2.96995044e-03, 6.45406125e-03, 2.04311702e-02, 6.12256192e-02,
       5.42776696e-02, 2.95219775e-02, -7.63872173e-03, -5.55295637e-03,
       -1.20455036e-02, -2.83866859e-04, 2.95689050e-02, 2.41088364e-02,
       2.49784999e-02, 1.03067188e-02, 2.04557553e-02, -1.62894875e-02,
       -4.10629110e-03, 2.82525830e-02, -2.56950147e-02, -1.41697600e-02,
       -4.32592407e-02, -2.88552977e-02, -1.85871422e-02,
       -4.24782746e-02, -4.18933779e-02, -2.61519495e-02,
       -2.48291297e-03, 1.88646950e-02, 6.72635585e-02, 6.08216599e-02,
       4.53265011e-02, 3.03754043e-02, 4.77226041e-02, 1.43108955e-02,
       3.11539415e-03, 1.65194608e-02, -1.58744175e-02, -1.02703646e-02,
       -2.29191165e-02, -6.07889257e-02, -2.57182922e-02,
       -2.39057001e-02, -1.32272085e-02, -2.70640757e-03, 8.05822108e-03,
       1.89693575e-03, 4.49883081e-02, -2.67273653e-02, 8.20443407e-03,
       1.30457198e-02, -2.43756920e-03, -2.80680768e-02, -1.65647995e-02,
       -5.84171992e-03, -2.19390541e-03, 6.12286385e-03, -2.45847907e-02,
       -7.55270617e-03, 1.50487246e-02, 1.80351622e-02, -1.65562313e-02,
       -8.00116546e-03, -2.79351454e-02, -2.99818981e-02,
       -2.59399153e-02, -1.35247847e-02, 1.26071628e-02, 2.68551800e-02,
       3.04224174e-02, -1.44319469e-02, -1.67636969e-03, 3.91787803e-03,
       -1.62812509e-02, -2.72539333e-02, -4.45168577e-02, 3.06439004e-04,
       -1.68686488e-03, 1.37235140e-02, -3.07239704e-02, -3.02418750e-02,
       -2.46578064e-02, 2.11888030e-02, 3.47514264e-02, -1.63328822e-03,
       5.91021590e-03, 8.68553575e-03, 2.75645927e-02, -5.60100796e-03,
       6.69740187e-03, -4.26869793e-03, -7.53805274e-03, 2.72524226e-02,
       1.29978335e-03, 1.65372062e-02, 1.24375997e-02, 2.94914041e-02,
       -1.93880890e-02, -3.92857101e-03, -7.25904573e-03,
       -7.77125265e-03, 1.46717429e-02, -1.54233910e-02, 4.02411725e-03,
       -1.24535654e-02, 1.86728016e-02, -1.41937630e-02, 4.92682541e-03,
       9.00191627e-03, -4.51787934e-02, -7.29262689e-03, -8.54597520e-03,
       8.49304907e-03, -1.23489099e-02, -1.51349735e-02, -3.75998169e-02,
       -1.96178779e-02, -2.55780704e-02, -6.71360688e-03,
       -1.51041057e-02, -5.87510318e-02, -1.04232533e-02, 5.43000400e-02,
       3.94441886e-03, -4.95402217e-02, -3.58535200e-02, -8.13825149e-03,
       3.98090109e-03, 1.40660182e-02, -3.09843030e-02, 2.37525683e-02,
       8.73013679e-03, 6.21440262e-03, -2.34187674e-02, 6.96925493e-03,
       5.21352515e-03, -7.88342860e-03, -3.54481339e-02, -4.79770266e-02,
       -2.78900057e-04, 4.08259444e-02, -1.65916048e-02, -6.13385998e-02,
       -1.33510148e-02, -4.33409819e-03, 9.34836455e-03, 1.01375207e-02,
       -2.00885441e-02, -5.80282463e-03, -9.21205338e-03, 2.08619535e-02,
       -3.50561738e-02, 1.75159499e-02, 6.80130953e-03, -1.14091700e-02,
       1.35734137e-02, -1.73738841e-02, -5.77218272e-03, 2.15317458e-02,
       -1.50688747e-02, -2.26366743e-02, 9.20087658e-03, -6.13035308e-03,
       -1.75381824e-02, 1.86997168e-02, -1.28186180e-03, -1.27778370e-02,
       -1.51306791e-02, -6.94724545e-02, -3.49825546e-02, 4.82468447e-03,
       -1.58492867e-02, -2.89826002e-03, 8.91971309e-03, -2.84864865e-02,
       -2.84362901e-02, -2.99213687e-03, -1.65077541e-02,
       -2.13643797e-02, 1.63057707e-02, -9.74547770e-03, -1.36005143e-02,
       8.21334484e-04, -4.81173135e-02, -7.62822628e-02, -6.47279434e-03,
       -2.13156436e-02, 2.95184087e-03, 2.42744815e-02, -1.51970023e-02,
       -6.06893003e-03, 7.49587035e-03, -1.11546610e-02, -2.73131579e-02,
       -3.56127471e-02, -4.72007431e-02, -3.61422673e-02,
       -2.76844506e-03, -8.32502171e-03, 7.84243736e-03, -1.24572152e-02,
       -1.90612383e-03, 2.24413089e-02, 1.25825740e-02, 2.33780257e-02,
       1.02169700e-02, -2.25046426e-02, 2.60765059e-03, -6.51242584e-03,
       -4.61866567e-03, -4.41499501e-02, -5.65565862e-02,
       -4.33876030e-02, -3.20281498e-02, -7.17802625e-03, 1.13726621e-02,
       -3.34113091e-03, 4.51716734e-03, -2.23838333e-02, 1.05241565e-02,
       6.26436993e-03, -1.56453978e-02, -7.20341865e-04, -4.69591469e-03,
       -1.61420219e-02, 7.57488795e-03, -1.00006312e-02, -3.42521630e-02,
       -3.13189141e-02, 2.77806837e-02, 6.46769162e-03, 4.95469309e-02,
       -4.66429209e-03, -4.04664837e-02, -1.31759290e-02, 3.08266561e-02,
       9.84085724e-03, 6.74278708e-03, 6.83684200e-02, 5.44415303e-02,
       4.71236371e-02, 1.10035138e-02, 6.55822875e-03, 1.19853914e-02,
       -1.27187446e-02, -4.46385629e-02, -9.94321331e-03, 3.35363932e-02,
       -3.37516470e-03, 1.73416883e-02, -3.69447768e-02, -4.32887748e-02,
       -1.47976121e-02, 7.50761665e-03, -1.71252631e-03, -5.06375509e-04,
       2.57447287e-02, 4.79759984e-02, 5.77239580e-02, -1.77190301e-03,
       1.17447227e-02, 2.57936697e-02, 6.28454611e-02, 6.68421984e-02,
       4.39647920e-02, 4.05707657e-02, -8.83583818e-03, 4.10114527e-02,
       3.08695212e-02, 2.63864212e-02, 4.22454439e-02, -1.36550292e-02,
       8.30662064e-03, -2.31674314e-02, -5.10114990e-02, -7.99813196e-02,
       -3.35066505e-02, -1.36297112e-02, 3.22626345e-03, -1.56714488e-02,
       3.23150009e-02, 1.52148567e-02, 2.32261587e-02, 2.67505944e-02,
       -1.34500740e-02, 4.32668068e-02, 4.12459522e-02, 6.61204010e-02,
       5.62699549e-02, -2.82286443e-02, -1.22430706e-02, -2.09707394e-02,
       -4.13102508e-02, -7.84686282e-02, -6.49983287e-02,
       -3.48596461e-02, -2.56251195e-03, -2.34177187e-02, 5.73281395e-05,
       7.53525738e-03, 1.89339183e-02, 3.57152522e-02, 3.45491245e-02,
       3.68646868e-02, -1.17967092e-02, 4.32244502e-03, 4.13400354e-03,
       -1.51050529e-02, -5.60634909e-03, -2.40179729e-02,
       -1.30812172e-03, -4.03556600e-03, -5.76951215e-03,
       -4.49320264e-02, -2.91092601e-02, -2.58288831e-02,
       -1.79178765e-04, 3.80566256e-04, -1.04826344e-02, 4.06238995e-02,
       3.76061536e-02, 3.24741118e-02, 1.27601298e-02, -3.95978661e-03,
       -9.81559977e-03, -2.60380041e-02, -3.29552479e-02,
       -4.86315936e-02, -1.45293394e-04, -4.84167319e-03, 3.05531011e-03,
       -2.63553392e-02, -8.55546165e-03, -1.25374440e-02,
       -5.57323638e-03, 2.59537008e-02, 7.77711673e-03, 2.75247525e-02,
       8.20558239e-03, 4.21810150e-02, 7.37093203e-03, 1.43178143e-02,
       4.62123472e-03, -3.50392312e-02, 8.60409811e-03, 9.03424050e-04,
       3.08810864e-02, 2.87145879e-02, 4.34316043e-03, -1.55010056e-02,
       -1.04460176e-02, -2.99305767e-02, 6.19787490e-03, 1.76393669e-02,
       9.03123990e-03, 5.14585264e-02, 8.45580734e-03, 3.29471044e-02,
       1.19534452e-02, 2.77952123e-02, 1.28385820e-03, -3.21277156e-02,
       -1.07713258e-02, -1.90276187e-02, 4.66589164e-03, 2.87078470e-02,
       3.73313539e-02, 4.75329859e-03, 7.80159701e-03, -3.60457748e-02,
       -2.75670476e-02, -4.60389070e-02, -4.66690138e-02, 1.08763576e-02,
       4.45291549e-02, 6.57490455e-03, -4.91030551e-02, -7.53489207e-04,
       -3.32966959e-03, 2.02918053e-03, 7.35837501e-03, -2.00967621e-02,
       -1.80405583e-02, -2.77477764e-02, 3.25266495e-02, -1.15486896e-02,
       3.35307010e-02, 1.58070717e-02, -3.85726579e-02, -4.48212624e-02,
       -4.70485091e-02, 1.09390775e-02, 6.93060979e-02, -1.29214451e-02,
       -7.18870237e-02, -4.59628552e-02, -1.66006908e-02, 1.29087465e-02,
       5.91159752e-03, -1.76475924e-02, -1.14628887e-02, 8.01952032e-04,
       5.00620604e-02, -8.47507454e-03, 2.58410536e-02, 4.19111252e-02,
       -1.18084927e-03, 5.55955339e-03, -2.44289376e-02, -4.62057553e-02,
       6.02847897e-03, 1.34226296e-03, -3.21668088e-02, 1.69733213e-03,
       -3.23229632e-03, -1.87557959e-03, -1.51773286e-03,
       -4.05321121e-02, -5.82068861e-02, 1.82451832e-03, -2.83711199e-02,
       -1.57451220e-02, -2.76748021e-03, -9.50618275e-03, 1.00693386e-02,
       4.10393393e-03, -1.08407643e-02, -1.16454493e-02, 3.42532098e-02,
       2.69870926e-03, -3.62550765e-02, -1.21379783e-02, 1.75746940e-02,
       5.75864827e-03, 1.82300154e-02, -1.80987161e-04, -1.73618179e-02,
       1.76239014e-02, -1.66815035e-02, -3.18558328e-02, -2.64279786e-02,
       -5.71147958e-03, -4.44475468e-03, -7.47194095e-03,
       -4.07708809e-02, -5.55979013e-02, -3.68703082e-02,
       -6.76263263e-03, 6.28308719e-03, 7.57637993e-03, 5.20659937e-03,
       -9.98304691e-03, -2.91124601e-02, -2.43637394e-02, 1.46783199e-02,
       -8.56636558e-03, 4.74599190e-02, 2.22728048e-02, -4.85667679e-03,
       6.69275457e-03, -1.90011144e-03, 7.69108359e-04, -3.16010565e-02,
       -5.70706539e-02, -3.10364440e-02, 2.03554705e-02, -4.21223883e-03,
       -1.46121411e-02, 7.15414342e-03, -2.50868686e-02, -4.19982076e-02,
       -4.67414893e-02, -4.85285446e-02, -1.97002292e-02, 6.84710369e-02,
       5.55087887e-02, -2.09687985e-02, -1.96401458e-02, -9.43585415e-04,
       -3.10680103e-02, -9.58533864e-03, 4.24596891e-02, 3.42025757e-02,
       7.47237876e-02, -5.77967940e-03, -2.34494433e-02, 3.05116735e-03,
       -9.93694738e-03, -1.38206314e-02, -2.19167955e-03, 4.02025431e-02,
       5.75050898e-02, 7.09148347e-02, 2.07285639e-02, 4.30950383e-03,
       -3.93018452e-03, 1.09208310e-02, -3.28835063e-02, -2.32806355e-02,
       -1.00918021e-02, 1.83788948e-02, 5.66601977e-02, 2.88405884e-02,
       -2.40894295e-02, -5.28819347e-03, 4.37949365e-03, -1.22635551e-02,
       -8.61449353e-03, 1.55640068e-02, 2.87428778e-02, 2.37868950e-02,
       2.98808962e-02, 1.42587544e-02, 8.85317288e-03, 1.54442824e-02,
       -2.92598479e-03, 1.19671049e-02, 5.42921238e-02, 3.79292443e-02,
       5.04927412e-02, 5.13357893e-02, 6.24304526e-02, 2.20331196e-02,
       1.19882738e-02, -5.59505948e-04, -1.58064757e-02, -1.66401174e-02,
       -1.49326585e-02, -5.04598096e-02, -1.93061475e-02,
       -9.88776213e-04, -9.21163242e-03, 3.59897502e-02, 4.44842823e-04,
       -1.28219984e-02, 2.23776717e-02, -4.11060359e-03, 1.40067218e-02,
       2.13623140e-02, 2.95072403e-02, 4.69399942e-03, -5.22371801e-03,
       -2.75761355e-02, -4.46671918e-02, -4.83904220e-02,
       -1.61515251e-02, -2.65707336e-02, -4.44437042e-02,
       -2.13600136e-02, -1.96825340e-02, 5.03601972e-03, -1.27324928e-03,
       -2.26158630e-02, 2.64579765e-02, 3.71532477e-02, 1.04970280e-02,
       -1.71325319e-02, -1.63050015e-02, -2.63910517e-02,
       -1.88977029e-02, -2.64448300e-02, -2.94881258e-02, 1.28644574e-02,
       1.09373480e-02, 1.71207229e-03, -4.16111872e-02, -1.84021369e-02,
       -1.08289663e-02, -9.64135304e-03, -1.90060772e-02,
       -3.01910006e-02, -2.32721074e-03, 8.10501922e-04, 1.09593999e-02,
       -2.27861255e-02, 3.58515643e-02, -3.12093110e-03, -3.17177512e-02,
       -1.17465155e-02, -2.37521082e-02, 1.69234835e-02, 1.13875847e-02,
       -9.90651082e-03, -3.11483499e-02, -7.71474792e-04,
       -4.27515665e-03, 6.48776162e-03, 1.54735765e-03, -1.45518575e-02,
       1.09802186e-02, -4.41279495e-03, -1.74198172e-03, -1.30169047e-02,
       1.99169572e-02, -2.84346449e-03, -1.79775748e-02, -1.75538063e-02,
       -3.50168608e-02, -1.73507445e-02, -9.74560436e-03,
       -1.23104942e-03, -4.88726515e-03, -6.32571010e-03,
       -3.95778716e-02, -9.28027090e-03, 4.46636043e-03, -1.28867505e-02,
       2.77431179e-02, 9.83160082e-03, 6.44323463e-03, -7.68455630e-03,
       2.10844446e-02, 1.52364066e-02, -1.14174141e-02, -8.82776827e-03,
       -2.82230452e-02, 3.30846719e-02, 6.46213535e-03, 1.85354128e-02,
       -2.64817500e-03, 2.07906812e-02, -1.02267303e-02, -2.41433699e-02,
       -4.28478979e-02, -5.39491475e-02, 8.22645333e-03, 5.07873483e-02,
       -3.07671190e-03, -6.71717823e-02, -3.56588177e-02,
       -1.37440935e-02, 1.06816525e-02, 2.45032888e-02, 6.74254121e-03,
       2.00848607e-03, 7.70768849e-03, 3.61012556e-02, -2.98503675e-02,
       1.03882728e-02, 2.34631114e-02, -5.20338537e-03, -1.94974560e-02,
       -3.00401077e-02, 3.47243212e-02, 3.08886189e-02, -6.74377475e-03,
       -6.51881248e-02, -3.26764099e-02, -8.06338899e-03, 1.68775860e-02,
       4.31825034e-02, 3.27883922e-02, 1.59452129e-02, -1.87110845e-02,
       4.38839979e-02, -2.13527065e-02, 6.43320708e-03, 1.61781646e-02,
       5.38870785e-03, 1.63182132e-02, 7.20321573e-03, -1.09778028e-02,
       2.78474931e-02, 1.29627883e-02, -2.61293780e-02, 7.61720585e-05,
       9.76232905e-03, -5.83925226e-04, 1.76114552e-02, -5.45627624e-03,
       -4.66739945e-02, -1.24341492e-02, -1.20654926e-02,
       -3.15845869e-02, -1.67374704e-02, 9.11215262e-04, -9.07049398e-04,
       2.11533513e-02, 2.41142623e-02, 1.56567316e-03, -1.14204420e-03,
       2.95121130e-02, -1.33500909e-02, 9.93127748e-03, -2.59439577e-04,
       5.82841167e-04, 1.06351115e-02, 8.06936901e-03, -2.46251617e-02,
       -4.04374339e-02, 2.57997252e-02, -3.08907521e-03, 1.16038986e-03,
       7.25782244e-03, -1.18739968e-02, 5.81721717e-04, -2.73346771e-02,
       -6.39129803e-02, -1.76314656e-02, 2.61998679e-02, -1.84705313e-02,
       -3.09063196e-02, -1.90235302e-03, -2.56934687e-02,
       -4.51292321e-02, -3.96753885e-02, -2.74682343e-02, 1.84293222e-02,
       8.90817121e-02, 4.68564183e-02, -2.44225692e-02, -1.85115319e-02,
       -5.10692736e-03, -1.14393895e-02, -9.52313188e-03,
       -4.84273098e-02, -2.07766723e-02, 4.21481952e-02, 1.09991552e-02,
       -1.64537504e-02, -1.27699960e-03, 2.01942888e-03, -9.93690826e-03,
       2.12924480e-02, 2.24017240e-02, 1.41492886e-02, 6.34180978e-02,
       5.44396788e-02, -7.39985052e-03, 9.30049340e-04, 3.36531550e-02,
       -2.17505097e-02, -2.21631769e-02, -2.58685765e-03, 2.96013691e-02,
       9.05285105e-02, 3.75842713e-02, -8.05378426e-03, 2.35482585e-02,
       4.25770804e-02, -1.52456318e-03, -1.26538305e-02, -1.32542560e-02,
       -1.29368249e-02, 4.09793342e-03, 4.44030426e-02, 2.50754356e-02,
       4.08947095e-02, 2.79116537e-02, -9.11158044e-03, 1.33718073e-03,
       1.16246017e-02, -1.49129694e-02, 5.23629710e-02, 1.26407826e-02,
       -1.65975164e-03, 3.33279073e-02, 2.72779483e-02, 5.04006492e-03,
       -6.04714407e-03, -1.78306606e-02, -8.16777442e-03, 7.39521394e-03,
       4.54501174e-02, 4.40204889e-02, 1.90904289e-02, 6.03270754e-02,
       2.15298757e-02, -2.64525926e-03, -1.63426378e-03, -6.10653916e-03,
       -4.16803639e-03, 3.10217310e-02, 6.04634620e-02, 1.05603710e-02,
       -1.38085829e-02, -1.86288152e-02, -2.38744095e-02,
       -2.35173982e-02, 1.86156090e-02, -2.91623585e-02, -5.43853715e-02,
       -4.24805284e-03, -1.89147908e-02, 3.60911712e-02, 2.83008181e-02,
       1.35752754e-02, 1.00432029e-02, -1.76558532e-02, 2.76257191e-03,
       4.90109250e-02, 5.58059327e-02, 3.53628397e-03, -4.92686331e-02,
       -3.77641506e-02, -3.55308503e-02, -3.57226213e-03,
       -1.43767400e-02, -3.78308930e-02, -2.97094323e-03, 3.12571786e-02,
       -2.08953433e-02, -3.93615887e-02, -1.45774595e-02,
       -9.15997010e-03, 1.37558347e-02, 2.79944204e-02, 7.96200428e-03,
       -2.83369850e-02, 4.21695635e-02, -6.01582089e-03, -4.11609225e-02,
       -7.67034292e-03, -2.56521348e-02, -1.44111849e-02, 1.25812469e-02,
       -3.82751748e-02, -3.75026688e-02, 2.39293296e-02, 8.04082863e-03,
       -5.51550835e-02, -3.20115276e-02, -2.17053220e-02, 2.24029422e-02,
       2.37727351e-03, -7.49107217e-03, -1.67104565e-02, 6.64168969e-02,
       2.26575080e-02, -4.49012555e-02, -2.88931318e-02, -2.90355850e-02,
       -7.17274426e-03, 6.90253824e-03, -3.17836627e-02, -1.54837277e-02,
       2.64993422e-02, 2.07513645e-02, -2.95978449e-02, -5.27320337e-03,
       -2.55069248e-02, -1.58452578e-02, -6.33996073e-03,
       -1.97844673e-02, -4.18297723e-02, 3.71469893e-02, 1.88992987e-03,
       -3.43012139e-02, -1.73366033e-02, -3.43644880e-02, 1.21098608e-02,
       3.55680153e-04, -1.42379235e-02, -3.63354534e-02, 4.50852513e-02,
       4.51463740e-03, -2.48323232e-02, -2.96806637e-03, -2.04416402e-02,
       9.11540259e-03, 6.39978610e-03, 1.60763727e-03, -1.06984908e-02,
       4.23954614e-02, 1.06939636e-02, -3.60638015e-02, -2.71684248e-02,
       -3.27617377e-02, 2.98530515e-02, 2.98254099e-02, 1.59087554e-02,
       -1.91646386e-02, 7.64165372e-02, 4.37334254e-02, 6.31479314e-03,
       -1.88874118e-02, -1.65669769e-02, 2.89180744e-02, 4.72174631e-03,
       -6.04597852e-03, -3.52325886e-02, -2.15234179e-02, 4.77448411e-05,
       8.07135366e-03, 3.49473730e-02, 5.54032587e-02, 1.35815339e-02,
       -6.40475540e-04, 4.04889993e-02, -5.24203060e-03, 6.29926519e-03,
       1.70860551e-02, 5.48227318e-03, 3.43323359e-03, 1.62234958e-02,
       -2.86385184e-04, -3.69153395e-02, 9.28377546e-03, -1.38489250e-02,
       -1.89890638e-02, -1.57196857e-02, 1.99597310e-02, 6.12135716e-02,
       9.66809541e-02, 2.36807205e-02, 8.37860629e-03, 6.93445802e-02,
       1.84775088e-02, 1.70213245e-02, 1.78792402e-02, -2.03660689e-02,
       -3.28880316e-03, 2.66051814e-02, -7.55520957e-03, -2.47438084e-02,
       4.23351448e-04, -2.81186681e-02, -8.54145642e-03, -6.06208341e-03,
       -3.15594487e-03, -1.48822684e-02, -1.55327865e-03,
       -4.02409658e-02, -5.15800677e-02, 1.36819789e-02, 1.95547709e-05,
       1.67809427e-03, 1.34899812e-02, -8.72809207e-04, 2.21151020e-02,
       8.03676173e-02, 3.02440040e-02, -1.82534975e-03, 4.41648103e-02,
       -5.73822251e-03, 1.37185054e-02, 1.86199173e-02, 3.15193497e-02,
       2.23110542e-02, 2.99238767e-02, -2.53670290e-02, -2.65812073e-02,
       4.89128195e-02, 2.47246288e-02, 1.92380156e-02, 4.35127169e-02,
       4.68105171e-03, -2.06698664e-02, -1.16450647e-02, -6.11375012e-02,
       -1.73453745e-02, 2.98846923e-02, 2.66690808e-03, -1.21251652e-02,
       7.72871217e-03, 2.44992436e-03, -1.98123921e-02, 1.70421451e-02,
       -5.91880223e-03, -1.47493966e-02, 3.98298576e-02, 5.07576689e-02,
       -4.36421222e-04, 6.04082225e-03, 2.24789400e-02, 8.98764003e-03,
       1.31982220e-02, -3.31702791e-02, 1.60126239e-02, 3.83162647e-02,
       -1.79031454e-02, -7.42636574e-03, 2.17702352e-02, 5.40352473e-03,
       1.69319694e-03, 2.78203730e-02, -2.06700135e-02, -2.27049785e-03,
       4.70266379e-02, 3.61304209e-02, 3.67454663e-02, 4.45571691e-02,
       8.49521253e-03, -1.42872883e-02, 3.54875922e-02, 3.21042463e-02,
       6.85327640e-03, 5.95993437e-02, 2.13403050e-02, 1.37638748e-02,
       5.53812599e-03, -7.74062518e-03, -2.05675978e-02, 9.05846152e-03,
       8.93734861e-03, 6.92694914e-03, 9.54591855e-03, 2.04021623e-03,
       -1.02114156e-02, -2.08499376e-02, 3.67338629e-03, -8.98478087e-03,
       2.79327482e-02, 3.54691148e-02, -5.68091171e-03, 3.54444049e-02,
       1.31941652e-02, 4.82432023e-02, 3.40058468e-02, -2.03904565e-02,
       -2.75645740e-02, -5.59108146e-03, -3.71862925e-03,
       -3.45292054e-02, 9.34222806e-03, -7.37976516e-03, -8.84622394e-04,
       -4.97898180e-03, -2.52365950e-03, -3.64156417e-03, 7.32904160e-03,
       2.29316764e-02, -1.42552853e-02, 1.74552221e-02, 8.03526267e-02,
       1.01244569e-01, -5.45133045e-03, -8.06205794e-02, -4.88434844e-02,
       -4.90262322e-02, -6.64379029e-03, -2.05525961e-02,
       -2.28093732e-02, 3.84276360e-02, 5.70039898e-02, -1.31959319e-02,
       -3.88473948e-03, -1.23342955e-02, -2.01281868e-02,
       -8.77268240e-03, -2.22723149e-02, 2.71986867e-03, 4.77004051e-02,
       7.34916851e-02, 2.46118400e-02, -5.28535135e-02, -4.13304642e-02,
       -7.76195377e-02, -4.28269543e-02, -4.26227748e-02,
       -2.21946966e-02, 2.37104893e-02, 9.88749340e-02, -8.70142691e-03,
       -6.84641823e-02, -5.31727225e-02, -5.61140180e-02,
       -1.07876025e-02, -2.81935707e-02, -1.60144661e-02, 1.89474653e-02,
       9.09159407e-02, 3.18548344e-02, -8.01610053e-02, -5.26565574e-02,
       -3.87723334e-02, -3.24807242e-02, -1.99395344e-02,
       -2.12201066e-02, 2.10421626e-02, 4.15844508e-02, -1.40376249e-02,
       -2.55479198e-02, -2.94788368e-02, -6.61096573e-02,
       -3.84930931e-02, -5.99089861e-02, -2.29707547e-02, 7.82342777e-02,
       1.66784778e-01, 6.00104593e-02, -5.47843501e-02, -3.08920145e-02,
       -5.06091081e-02, -4.75094207e-02, -5.58782592e-02,
       -3.18562724e-02, 7.25488663e-02, 1.51025712e-01, 2.82417759e-02,
       -4.19548824e-02, -1.29012186e-02, -6.80146832e-03,
       -3.07645905e-03, -4.46089357e-03, 1.57581102e-02, 3.05849276e-02,
       3.97432782e-02, -9.22465976e-03, -4.48477268e-02, -3.48999277e-02,
       -2.33031362e-02, 8.45749862e-03, 7.89102819e-03, 7.06473948e-04,
       -1.11445496e-02, 6.18021190e-02, 1.29374927e-02, -4.04890664e-02,
       -5.30995755e-03, 4.47759684e-03, -5.49214333e-03, -3.34747285e-02,
       8.22403585e-04, 6.55123591e-02, 1.13233529e-01, 3.21411975e-02,
       -4.08393778e-02, -4.48427610e-02, -3.54998000e-02,
       -1.96529981e-02, -3.08852736e-02, -1.14663718e-02, 2.68742740e-02,
       8.64405036e-02, 3.38344574e-02, -9.01366830e-01 ]
