%YAML:1.0
---
detector: !!opencv-object-detector-hog
   winSize: [ 64, 64 ]
   blockSize: [ 16, 16 ]
   blockStride: [ 8, 8 ]
   cellSize: [ 8, 8 ]
   nbins: 9
   derivAperture: 1
   winSigma: 4.
   histogramNormType: 0
   L2HysThreshold: 2.0000000000000001e-01
   gammaCorrection: 1
   nlevels: 64
   signedGradient: 0
   SVMDetector: [ -1.94216762e-02, -5.43026105e-02, -4.65383902e-02,
       -3.50110084e-02, -4.45240065e-02, -3.70287709e-02,
       -1.68013554e-02, -1.10249147e-02, -1.15444427e-02, 1.57315340e-02,
       5.74155198e-03, 3.58523801e-02, 3.48566361e-02, 3.17047089e-02,
       -9.18767694e-03, 6.04834233e-04, -3.14177107e-03, -5.07335365e-03,
       -1.55431908e-02, -2.58273575e-02, -3.36932354e-02,
       -2.67568193e-02, 6.64054556e-03, -2.89475061e-02, -1.85724404e-02,
       -4.07694327e-03, 2.72716172e-02, -4.58990177e-03, 1.07821207e-02,
       3.42722461e-02, 4.73668799e-02, 3.72006446e-02, 1.65798198e-02,
       1.99750867e-02, 3.07949148e-02, 2.17658468e-02, -4.10023667e-02,
       -3.60630378e-02, -3.98385301e-02, -3.16610560e-02,
       -1.72095615e-02, -1.02792338e-01, -7.20562786e-02,
       -6.31602332e-02, -4.87838499e-02, 3.94626446e-02, 6.36027679e-02,
       5.58674894e-02, 6.49355799e-02, 4.37913276e-02, 7.03223124e-02,
       5.66467270e-02, 3.09150890e-02, 5.19535765e-02, -7.45270178e-02,
       -3.16390693e-02, -2.91721150e-02, -2.30373926e-02,
       -2.31049713e-02, -8.86723101e-02, -6.73727691e-02,
       -4.12397794e-02, -3.09813023e-02, 2.07452457e-02, 2.38042008e-02,
       4.61914390e-02, 6.38173223e-02, 4.33882736e-02, 3.82536091e-02,
       1.92593914e-02, 9.16987006e-03, 4.91794897e-03, -7.22936317e-02,
       -3.38918567e-02, -3.06457318e-02, -8.91533121e-02,
       -5.50102666e-02, 6.98386133e-03, -1.69296227e-02, -8.58496316e-03,
       -5.52816615e-02, 5.25881685e-02, 6.45188615e-02, 6.41563833e-02,
       3.63673940e-02, 3.72225456e-02, 4.26439084e-02, 9.00369138e-02,
       7.11430013e-02, 5.99482842e-02, -6.68633953e-02, -5.22694141e-02,
       -4.76858430e-02, -6.98245913e-02, -7.45388716e-02,
       -5.23648039e-02, -3.40358615e-02, -2.44650431e-02,
       -7.77861625e-02, 1.54539160e-02, 7.78866932e-03, 7.81464204e-03,
       -1.34290475e-02, -2.61842199e-02, 7.52833614e-04, 3.95120047e-02,
       2.74929218e-02, 2.31824387e-02, 4.27577943e-02, 2.79461481e-02,
       -3.27323959e-03, -4.67000604e-02, 2.11620331e-02, 3.32210325e-02,
       3.19218263e-02, 3.24160233e-02, 2.56064031e-02, -1.78300869e-03,
       3.65659967e-02, 3.63695459e-03, -6.72717020e-02, -9.20591280e-02,
       -3.21786590e-02, 1.91903301e-02, -6.15348760e-03, -2.16370597e-02,
       1.95923112e-02, 1.66977718e-02, -2.44897194e-02, -3.93126532e-02,
       2.30048019e-02, 2.98772659e-02, 3.36842723e-02, 2.87175011e-02,
       1.27430847e-02, -1.02038458e-02, 3.96239199e-02, 1.11334817e-02,
       -1.63881760e-02, -3.72621864e-02, -2.25368533e-02,
       -3.11944680e-03, -1.80966333e-02, -4.38545309e-02, 4.05582152e-02,
       3.23818550e-02, -1.45854903e-02, -5.13315015e-02, -6.14312813e-02,
       3.55219841e-02, 2.23545823e-02, 1.07426876e-02, 1.21914945e-03,
       -2.74114627e-02, -2.60853004e-02, -2.38006078e-02,
       -2.91923080e-02, -5.84092773e-02, -6.87083155e-02,
       -3.77003029e-02, -5.65746687e-02, -5.45185395e-02, 5.77638485e-02,
       5.63305616e-02, 1.82492435e-02, 4.41054404e-02, 3.22826691e-02,
       8.85658190e-02, 7.50796869e-02, 4.55323569e-02, 3.34176011e-02,
       -1.14791486e-02, -3.46872285e-02, -3.50000896e-02,
       -6.62767701e-03, -3.87902707e-02, -4.64481115e-02,
       -1.71515066e-02, -2.49298885e-02, -2.48880740e-02, 4.72063618e-03,
       -2.36645602e-02, -7.50355329e-03, 1.18255233e-02, -1.25666838e-02,
       3.69921662e-02, 3.67256328e-02, 2.31485777e-02, 4.77933139e-02,
       -6.51867688e-02, -6.18466511e-02, -4.13531251e-02,
       -3.48128863e-02, -2.64154114e-02, -1.26722706e-02,
       -4.08337153e-02, -2.88612135e-02, -1.72329564e-02, 2.56020632e-02,
       5.34811663e-03, 3.64808133e-03, 4.37043943e-02, 8.95612873e-04,
       5.20240664e-02, 5.22217117e-02, 4.77626696e-02, 5.33869229e-02,
       -3.22739407e-02, -3.89862917e-02, -5.93768014e-03,
       -2.57026907e-02, -2.28723790e-02, -1.48717407e-02,
       -4.13660295e-02, -9.77237802e-03, -2.82972027e-02,
       -1.34871257e-02, -1.89448148e-02, -4.66747937e-04, 2.05449667e-02,
       3.00813578e-02, 1.39399767e-02, 8.23719054e-03, 2.47100890e-02,
       1.21518178e-02, -2.43454408e-02, -1.88205522e-02, -1.80774182e-02,
       8.65905138e-04, 2.11293865e-02, -6.64682165e-02, -3.87799218e-02,
       -2.25735083e-02, -2.24760398e-02, 1.90719496e-02, 1.60878208e-02,
       3.35136466e-02, 3.48516479e-02, 2.12149322e-02, 2.64388304e-02,
       1.25372391e-02, 4.48748954e-02, 3.75130586e-02, 7.26771634e-03,
       1.46415699e-02, -3.46604884e-02, -1.57659762e-02, 1.66097414e-02,
       -4.39620055e-02, -5.75398430e-02, -1.14060789e-02, 9.44580883e-03,
       -3.28769386e-02, -1.33707942e-02, -3.40443477e-02,
       -3.53686512e-02, 3.34679498e-03, 1.49347279e-02, -2.03151871e-02,
       -3.40764970e-02, -4.32204548e-03, 1.17003371e-03, -5.89614443e-04,
       -5.35098230e-03, 3.95427234e-02, 2.01003905e-02, 1.16550159e-02,
       3.61405239e-02, 2.99914908e-02, 3.40891890e-02, -4.81514707e-02,
       -1.45191830e-02, -1.87843442e-02, -1.79838687e-02, 5.84046217e-03,
       3.62032801e-02, -1.39330924e-02, -4.87580113e-02, -3.91538963e-02,
       -1.37403430e-02, -4.54403274e-03, 1.11067190e-03, 5.36186136e-02,
       2.08338816e-02, 1.70870330e-02, 2.15737671e-02, -1.84721511e-03,
       -2.71871537e-02, -5.90362214e-02, -6.65281042e-02,
       -5.61203025e-02, -3.84234786e-02, -2.59249993e-02,
       -4.90135364e-02, -1.31787965e-02, 2.35924497e-03, -4.90667298e-03,
       4.25788499e-02, -7.63829285e-03, 1.52679184e-03, 3.95418853e-02,
       -4.03651735e-03, 4.02172431e-02, 6.21079952e-02, 6.52918071e-02,
       8.15108139e-03, -7.01437220e-02, -8.10526460e-02, -4.80054580e-02,
       -2.84526888e-02, -4.87312749e-02, -4.22639251e-02,
       -3.85607854e-02, -6.08450994e-02, -5.92141487e-02, 4.93970402e-02,
       1.02224238e-02, 4.56126407e-02, 7.83865675e-02, -1.88768432e-02,
       2.74294820e-02, 3.45215127e-02, 2.11325437e-02, 1.42725101e-02,
       -3.08928993e-02, -5.05445674e-02, -5.84769547e-02,
       -8.55638683e-02, -4.81505468e-02, -3.88741866e-02,
       -1.00010866e-02, -2.70018317e-02, -6.22685403e-02, 1.36174355e-02,
       -8.86070367e-04, 1.28666805e-02, 1.60955936e-02, -1.54680302e-02,
       4.24239412e-02, 5.90380244e-02, 3.26122716e-02, 1.41124306e-02,
       -2.45337617e-02, -5.83563410e-02, -7.74221867e-02,
       -1.01819046e-01, -6.08304217e-02, -7.47689903e-02,
       -3.73917222e-02, -3.62545215e-02, -2.68889479e-02, 2.99868472e-02,
       5.84240770e-03, 5.22470325e-02, 1.53471986e-02, 1.40172970e-02,
       3.46325450e-02, 5.84021807e-02, 3.44732292e-02, 2.90163681e-02,
       -2.68376619e-02, -2.27237642e-02, -1.96427256e-02,
       -3.00914794e-02, 3.45761776e-02, 4.63680774e-02, -4.26473506e-02,
       -1.39240688e-02, -3.29329185e-02, -1.80039704e-02, 6.16314402e-03,
       2.33350676e-02, 3.56388129e-02, 3.66906412e-02, 1.87712279e-03,
       -5.76964356e-02, -3.22219059e-02, -3.37132178e-02,
       -2.19698753e-02, -2.05378216e-02, 1.37772765e-02, 3.99196036e-02,
       3.93212866e-03, 1.63778663e-02, -1.88563317e-02, -4.54348959e-02,
       -3.72053422e-02, -5.65909874e-03, -1.94738079e-02, 1.99328419e-02,
       4.57007363e-02, 5.04566133e-02, -3.34124500e-03, -1.00920508e-02,
       -3.63733545e-02, -2.91193114e-03, 5.92310121e-03, -1.24702435e-02,
       1.22424951e-02, 1.83655489e-02, 1.86561160e-02, 5.03757745e-02,
       3.35835642e-03, -6.13369397e-04, 3.02524474e-02, -4.43034582e-02,
       -7.70190954e-02, -3.70572656e-02, -2.34780349e-02,
       -6.03919290e-02, -7.74053559e-02, -6.01438060e-02,
       -4.67174985e-02, -2.90230121e-02, 1.84153169e-02, -1.01406621e-02,
       4.80314605e-02, 7.26422518e-02, 4.26463410e-02, 4.80762012e-02,
       1.07182980e-01, 5.96077852e-02, 6.20479994e-02, -2.74906904e-02,
       -4.96119149e-02, -1.57839376e-02, -6.20348230e-02,
       -2.54690070e-02, -6.21647611e-02, -4.23991717e-02,
       -6.54183030e-02, -2.68198885e-02, 6.98937615e-03, 1.21632614e-03,
       1.83742084e-02, 2.71724630e-02, -2.25189161e-02, 1.66213047e-02,
       1.96238211e-03, 3.34540615e-03, 1.77683830e-02, -3.54507081e-02,
       -3.50413956e-02, -2.17541009e-02, -3.75580080e-02,
       -8.98269191e-03, -3.33492905e-02, -6.08333163e-02,
       -6.03645965e-02, -4.38049808e-02, 3.70731652e-02, 1.94981229e-02,
       8.07001591e-02, 3.54252420e-02, 3.26228654e-03, 3.17063406e-02,
       4.38055769e-02, 2.97511499e-02, 7.33400136e-02, -4.13686074e-02,
       -3.64576988e-02, -3.36190723e-02, -4.73361686e-02,
       -3.17713320e-02, 1.84138548e-02, -6.37358278e-02, -5.41935340e-02,
       -3.75583284e-02, 2.56952699e-02, 1.56913754e-02, 2.87214909e-02,
       4.05239724e-02, 5.47734872e-02, 3.80259659e-03, 2.10685767e-02,
       1.23787941e-02, 2.03155261e-02, 1.33576253e-02, 1.56984013e-03,
       -3.10286600e-02, 1.25667024e-02, 3.94583270e-02, -1.54997651e-02,
       -3.97569500e-02, -3.29577513e-02, -8.83524586e-03,
       -9.74942558e-03, 2.02870518e-02, 1.76972635e-02, 1.03543308e-02,
       2.29982985e-03, 2.37325970e-02, 3.26034427e-02, 2.10962072e-02,
       2.69930391e-03, -2.58906223e-02, -2.23783255e-02, -6.21411391e-02,
       -4.48879180e-03, 1.15036033e-02, 1.56080315e-03, -1.35468831e-02,
       5.60913468e-04, -2.75826436e-02, -1.60834193e-02, -2.04194477e-03,
       -3.53549942e-02, -2.06762496e-02, 4.27097678e-02, 3.07886563e-02,
       1.20467246e-02, -1.81466471e-02, 2.99525796e-03, 4.99605276e-02,
       3.44268829e-02, 3.84817971e-03, 2.11075842e-02, 3.31111439e-02,
       1.93280354e-02, 4.08488885e-02, 2.81812511e-02, 3.68796214e-02,
       -4.89314198e-02, -2.96437219e-02, -5.41629680e-02,
       -3.05654239e-02, -7.36904982e-03, -8.66103172e-03,
       -7.23238382e-03, -5.22557506e-03, -3.92683260e-02, 1.29171852e-02,
       1.25394613e-02, -7.24755600e-03, 4.86370884e-02, 4.28183712e-02,
       2.89307963e-02, 1.92694869e-02, -8.79823137e-03, -1.44307641e-02,
       -1.61155201e-02, -2.21807454e-02, -3.89216132e-02,
       -6.11972958e-02, -3.76849100e-02, -7.00335652e-02,
       -6.06056117e-02, -5.95983751e-02, -2.31042206e-02, 3.71837206e-02,
       1.22190993e-02, 3.67060043e-02, 6.52747005e-02, 2.13100128e-02,
       -6.17429568e-03, 1.36679579e-02, 1.14495326e-02, 2.24456787e-02,
       -6.57281652e-02, -4.61129993e-02, -4.90077920e-02,
       -6.32648543e-02, -2.06317455e-02, -8.27754363e-02,
       -6.38574958e-02, -6.82070032e-02, -6.80076852e-02, 1.28661990e-02,
       3.11932061e-02, 1.08289905e-01, 1.45754457e-01, 6.23651966e-02,
       3.83189060e-02, 2.59217396e-02, 7.48289302e-02, 1.92770064e-02,
       -3.53130586e-02, -1.07662557e-02, -2.76786443e-02,
       -6.06861040e-02, -5.73777296e-02, -5.16488738e-02,
       -3.51226516e-02, -2.15528328e-02, -2.40747184e-02, 9.67208110e-03,
       2.93698609e-02, 9.45261493e-02, 3.81603576e-02, 1.29341297e-02,
       -2.97264233e-02, 3.83760110e-02, 8.03779159e-03, 1.16702663e-02,
       -3.11685838e-02, -1.92531049e-02, -4.57712775e-03, 1.99994203e-02,
       2.66510416e-02, -5.32816499e-02, -3.07794642e-02, -1.07204989e-02,
       -2.05751625e-03, 5.81906699e-02, 7.30166063e-02, 1.08709000e-01,
       4.29008268e-02, 6.21261373e-02, -1.06922835e-02, 6.22437522e-02,
       3.85290310e-02, 5.98673671e-02, 1.10306088e-02, 2.37242738e-03,
       6.14857711e-02, 3.48777473e-02, -5.86194685e-03, -6.67741755e-03,
       3.50893363e-02, 8.42286553e-03, 9.79803037e-03, 4.93137687e-02,
       2.38184370e-02, 6.36674464e-02, 1.51689947e-02, 7.62564177e-03,
       -6.48245066e-02, 2.85589825e-02, 2.37664003e-02, 4.73531969e-02,
       1.54933576e-02, 3.32031772e-02, 8.09818581e-02, -5.30993007e-03,
       7.29926210e-03, -4.18910645e-02, 5.08901291e-02, 2.92277746e-02,
       -5.80285303e-03, 5.41776009e-02, 5.70039973e-02, 6.42478764e-02,
       5.99298906e-03, 3.25693376e-02, -4.25306447e-02, 2.33940743e-02,
       -7.39325490e-03, 1.06430948e-02, 4.15285230e-02, 2.07305644e-02,
       6.55340627e-02, -9.49548185e-03, -7.85889700e-02, -1.20751914e-02,
       1.20853521e-01, 9.60026979e-02, 7.71300495e-02, 8.39186087e-03,
       -3.07251681e-02, 1.59823466e-02, -8.87285769e-02, -4.91458438e-02,
       -6.42271340e-02, -2.23400313e-02, -3.46587673e-02, 5.84441889e-03,
       3.09073254e-02, 4.80057634e-02, 8.24902281e-02, 5.93764596e-02,
       2.05794852e-02, 4.44622673e-02, 1.57139018e-01, 8.58895779e-02,
       3.93846296e-02, -5.65333404e-02, -4.35531363e-02, 8.81264452e-03,
       -6.56793118e-02, -1.59064196e-02, -4.50211130e-02,
       -3.17847095e-02, -5.73487505e-02, -6.35129362e-02, 3.77554260e-02,
       2.47263201e-02, 8.80348235e-02, 1.05880052e-02, -2.73306109e-02,
       5.29737398e-02, 4.11966108e-02, 1.62847321e-02, 6.30576611e-02,
       -5.57135902e-02, -5.36400639e-02, -3.55686955e-02,
       -6.70284256e-02, 4.04002331e-03, -1.42727457e-02, -7.87092894e-02,
       -5.22520915e-02, -3.88245396e-02, -4.12994344e-03, 3.74645442e-02,
       6.05320632e-02, 5.21625169e-02, -1.22896377e-02, 4.81158942e-02,
       5.98389655e-02, 1.41836703e-03, 2.63920762e-02, -5.46862632e-02,
       -3.75813842e-02, -7.11011216e-02, -7.22775832e-02,
       -4.99530621e-02, -6.05482794e-02, -1.07185982e-01,
       -5.97728379e-02, -4.87141609e-02, -2.27154256e-03, 3.04026585e-02,
       3.73438336e-02, 1.44246938e-02, 2.98056863e-02, 2.67128479e-02,
       1.09700784e-02, 1.11003313e-02, 9.01938125e-04, -1.22771040e-02,
       -3.09529225e-03, -4.84417491e-02, 4.02042642e-03, 4.86248806e-02,
       1.87113825e-02, -3.17522371e-03, 2.04058308e-02, -8.75857472e-03,
       1.47191538e-02, 5.24130464e-02, 9.01659578e-03, -1.16000334e-02,
       -4.16432172e-02, 2.65085958e-02, 1.38054974e-02, 2.35146936e-02,
       1.09754317e-02, -2.65900958e-02, 1.14888866e-02, -4.12399247e-02,
       -2.02758722e-02, -1.57583803e-02, -1.60153564e-02,
       -2.51177810e-02, -1.09710936e-02, -4.01514061e-02,
       -2.28369776e-02, 2.57701054e-03, -1.16630541e-02, -6.41932804e-03,
       2.71623489e-02, 5.60351275e-03, 1.52921565e-02, 2.29025297e-02,
       -2.01406050e-02, 8.15349352e-03, 1.55951940e-02, 3.36469747e-02,
       8.18561390e-02, 2.46424936e-02, 5.36523573e-02, 3.57881822e-02,
       1.42181301e-02, 9.08034761e-03, -1.91186462e-02, 1.79945100e-02,
       6.23529404e-03, 9.44715939e-05, 8.92177876e-03, -8.02857801e-03,
       -1.10380771e-02, 1.86584727e-03, -1.19108101e-02, 1.67436525e-02,
       1.50552941e-02, 3.97408418e-02, 6.09837398e-02, 4.45012860e-02,
       8.21536183e-02, 3.88594307e-02, 2.20265500e-02, 2.16880329e-02,
       -7.13474303e-02, -4.65485454e-02, -5.03827482e-02,
       -7.16650486e-02, -4.62002791e-02, -7.69187659e-02,
       -6.14147484e-02, -6.81266859e-02, -7.49244764e-02, 8.36176146e-03,
       -1.34164877e-02, 4.64549474e-02, 1.13878474e-01, 6.89437464e-02,
       6.70099333e-02, 3.00236065e-02, 3.08950748e-02, 2.94576976e-02,
       -6.96131364e-02, -6.83940202e-02, -6.58065081e-02,
       -9.50382128e-02, -4.06652093e-02, -8.40691999e-02,
       -6.30001724e-02, -5.71246371e-02, -7.24830627e-02, 2.98568718e-02,
       2.93188952e-02, 2.81786248e-02, 4.28458117e-02, 4.83541749e-02,
       1.01256177e-01, 6.14590496e-02, -1.03617935e-02, 2.28848699e-02,
       3.59406392e-03, -2.64898632e-02, -2.96369065e-02, -3.08158416e-02,
       9.72384214e-03, -3.17017697e-02, -1.70050189e-02, -8.67258292e-03,
       2.63776127e-02, 4.48150039e-02, 5.77206276e-02, 3.28478552e-02,
       7.01618055e-03, 3.10611278e-02, -1.75045785e-02, 4.77457568e-02,
       5.06176949e-02, 6.30045980e-02, 2.35252753e-02, -1.59168411e-02,
       -2.20066346e-02, -3.58441956e-02, 1.48227960e-02, -3.95639278e-02,
       -2.41401996e-02, -2.82852259e-02, -1.92970352e-03, 6.70873895e-02,
       3.26743498e-02, 4.10013534e-02, -3.50493565e-02, 3.17737572e-02,
       -2.58451775e-02, 2.05905959e-02, 6.37460276e-02, 5.17661944e-02,
       4.30324078e-02, 6.33912385e-02, 5.77192903e-02, -3.26552615e-02,
       -9.91631183e-04, -4.98229936e-02, 5.04189879e-02, 4.83122431e-02,
       1.87187772e-02, 6.70753792e-02, 6.24878258e-02, 4.53048758e-02,
       -2.74053831e-02, -6.34205667e-03, -5.17579764e-02, 2.94288937e-02,
       -4.34408151e-03, 3.04127522e-02, 3.58787179e-02, 4.61523868e-02,
       6.06679134e-02, -6.11682571e-02, 2.06724983e-02, -3.78443338e-02,
       5.02129197e-02, 6.63767606e-02, 5.03703393e-02, 4.50057238e-02,
       -4.96209273e-03, 3.06568947e-02, -5.83184212e-02, 2.11841725e-02,
       -3.34873237e-02, 3.75825502e-02, 6.32876903e-02, 6.95586503e-02,
       1.72175616e-02, 2.70687658e-02, 5.82991689e-02, 2.29209177e-02,
       -4.36249226e-02, 6.92394301e-02, 1.09276943e-01, 2.08207332e-02,
       3.99243645e-03, -6.09251708e-02, -3.55306305e-02, -1.75886713e-02,
       -7.61896744e-02, -6.75129751e-03, -3.61126810e-02,
       -2.30981987e-02, -4.81083691e-02, -6.84091151e-02, 1.49769709e-02,
       1.20928586e-02, 1.12240657e-01, 4.72748242e-02, -3.06606796e-02,
       7.17069022e-03, 5.11837751e-02, 3.48754898e-02, 1.71633344e-02,
       -5.60954213e-02, -5.40319495e-02, -3.47606502e-02,
       -5.46356104e-02, -3.93548096e-03, -8.34806263e-02,
       -1.15503240e-02, -3.52694280e-02, -6.06004074e-02,
       -3.95721244e-03, 3.58090140e-02, 4.86222133e-02, 4.16079536e-02,
       2.09349878e-02, 8.98302421e-02, 5.90687655e-02, 2.32341718e-02,
       -1.05994083e-02, -5.41824140e-02, -2.64776722e-02,
       -6.17066734e-02, -8.47923234e-02, -1.81668065e-02,
       -8.77433568e-02, -6.74429610e-02, -3.93135324e-02,
       -6.66845292e-02, 5.82768163e-03, 1.98255088e-02, 5.12299053e-02,
       6.60323426e-02, 7.87788536e-03, 3.94685380e-02, 5.27889729e-02,
       4.52511422e-02, 7.39977462e-03, -5.38648255e-02, -3.60377282e-02,
       -7.58767799e-02, -8.45545679e-02, -4.62567285e-02,
       -8.96147639e-02, -6.11598752e-02, -2.52724625e-02,
       -5.00332862e-02, -1.17187779e-02, 2.72918642e-02, -3.00694127e-02,
       -7.31200399e-03, 2.03802958e-02, 5.87111944e-03, -1.07805980e-02,
       1.26513420e-02, -1.61676370e-02, -1.73515007e-02, -2.54250094e-02,
       -4.59316410e-02, 6.07415219e-04, 4.40299436e-02, -1.57691762e-02,
       -5.78337833e-02, -3.99888977e-02, -1.75118148e-02, 1.82397373e-03,
       2.10101772e-02, -9.82658006e-03, 1.36349713e-02, -1.09997196e-02,
       -7.87114445e-03, -1.41662862e-02, 3.58893275e-02, -1.30289821e-02,
       4.78476024e-04, -4.31899130e-02, -6.11395426e-02, -2.06377711e-02,
       1.80451404e-02, -1.23445243e-02, -4.15274613e-02, -1.89262703e-02,
       -1.00408131e-02, -3.15674879e-02, -1.42636783e-02,
       -1.09327296e-02, -2.40549445e-03, -5.95773291e-03,
       -3.24240327e-02, -5.20422794e-02, -3.66972387e-02,
       -3.77316363e-02, -8.54072347e-03, -1.40584493e-02, 1.51283676e-02,
       3.54796723e-02, 4.55091782e-02, 2.73034219e-02, -1.72677152e-02,
       -3.99667397e-03, 4.06779954e-03, 6.88511413e-03, -2.82121524e-02,
       1.21272111e-03, 2.71699205e-02, 4.54040105e-03, -2.12404057e-02,
       -3.80812548e-02, -2.01712642e-03, -1.46648381e-03, 4.52406071e-02,
       1.90729238e-02, 3.14127766e-02, 1.45430807e-02, 2.73142960e-02,
       2.26450711e-02, 9.29669384e-03, 3.78899761e-02, 4.43029776e-02,
       -4.45372090e-02, -6.73104227e-02, -5.25678694e-02,
       -6.47467896e-02, -8.04416341e-05, -5.86873889e-02,
       -5.00275940e-02, -4.26795855e-02, -5.98332696e-02, 1.92647334e-02,
       6.04499169e-02, 3.17867510e-02, 4.79505062e-02, 7.49692097e-02,
       1.72224820e-01, 1.26025751e-01, 3.87782454e-02, 1.32825796e-03,
       -1.49552701e-02, -7.33814538e-02, -6.62777126e-02,
       -7.44213909e-02, -5.18967770e-02, -6.24758489e-02,
       -4.20735404e-02, -2.64216494e-02, -1.69041678e-02, 2.73101777e-02,
       1.53486757e-02, 1.86800100e-02, -7.95404892e-03, -4.85610077e-03,
       5.47722951e-02, 3.44018154e-02, 1.18076131e-02, 4.31635603e-02,
       -1.11281369e-02, -1.29339769e-02, -2.51236260e-02,
       -4.90238704e-02, 2.72814892e-02, 3.05413939e-02, -7.38138857e-04,
       -2.82522812e-02, -4.87553142e-02, 4.72989157e-02, 2.60120723e-02,
       5.41106723e-02, 9.36794840e-03, 7.80702978e-02, 8.05464759e-02,
       1.10702045e-01, 7.36807063e-02, 6.02477863e-02, -3.17278653e-02,
       -2.64037587e-02, -3.90507244e-02, -5.97627200e-02,
       -5.07480465e-02, -8.82968903e-02, -4.78958078e-02,
       -3.39805633e-02, -4.54896465e-02, 2.82666069e-02, 2.09651291e-02,
       3.25940847e-02, -3.05093937e-02, 3.74315027e-03, 2.17740331e-02,
       8.75175521e-02, 2.58983560e-02, 2.62347572e-02, -3.53838783e-03,
       2.73344815e-02, 5.60055226e-02, -1.90302040e-02, 1.27759296e-02,
       2.59092897e-02, 6.97397813e-02, 2.73569692e-02, 9.78648756e-03,
       6.12489088e-03, -9.14212130e-03, 3.50482054e-02, -2.45341714e-02,
       2.50367746e-02, 2.23775655e-02, 7.90990591e-02, 5.76255247e-02,
       4.43510488e-02, 1.53589491e-02, 9.65407304e-03, 3.51970866e-02,
       -1.72742959e-02, 1.28377397e-02, 2.65973993e-02, 5.83452508e-02,
       -2.49663065e-03, 9.36339330e-03, 3.88116166e-02, 1.64767653e-02,
       1.70176383e-02, -8.34291875e-02, 7.44151790e-03, 1.48465773e-02,
       5.25111407e-02, 9.53425281e-03, 3.32241841e-02, 5.04720919e-02,
       9.33402628e-02, 1.64410338e-01, 8.02641734e-02, 4.62810323e-03,
       6.07772730e-02, 8.63191336e-02, 3.39874588e-02, 2.30298173e-02,
       -5.55653721e-02, -5.38573787e-02, -2.25844271e-02,
       -3.01004853e-02, -5.44227520e-03, -4.89040613e-02, 1.14490557e-02,
       -4.98182550e-02, -6.18559457e-02, 8.88443589e-02, 1.08716741e-01,
       1.22093298e-01, -3.74031328e-02, -5.45151718e-02, -1.65832322e-02,
       6.66668713e-02, 1.52940303e-02, 4.24796455e-02, 1.81486197e-02,
       -3.24088857e-02, -2.44313404e-02, -8.93670768e-02,
       -5.23626693e-02, -1.03438757e-01, 1.12531818e-02, -3.92596871e-02,
       1.27358530e-02, 2.22999565e-02, -9.21387319e-03, 6.10374585e-02,
       6.77121729e-02, -1.32062635e-03, 6.79800063e-02, 5.90564422e-02,
       1.95579566e-02, -1.26246531e-02, -4.49461788e-02, -5.67211248e-02,
       -9.40719619e-02, -5.62328361e-02, -1.10098412e-02,
       -6.50324225e-02, -6.81454614e-02, -3.80934961e-02,
       -6.37741983e-02, 7.47992173e-02, 2.02161372e-02, 4.77466024e-02,
       2.06862073e-02, -3.16987783e-02, -7.11864850e-04, 9.13586915e-02,
       2.68982314e-02, 4.86751087e-02, -4.47485968e-02, -5.04111350e-02,
       -8.21295530e-02, -1.47637026e-02, -2.63231602e-02,
       -8.39722231e-02, -5.27035780e-02, -5.81499785e-02,
       -5.56109734e-02, 1.61612742e-02, 1.99735891e-02, 8.01937189e-03,
       3.62574346e-02, 4.75320412e-04, -1.15802120e-02, 1.44884493e-02,
       4.04789522e-02, -2.62954202e-03, -4.73564826e-02, -1.68153439e-02,
       -2.00004727e-02, -1.33787775e-02, 1.17255244e-02, -3.90063077e-02,
       -4.73780110e-02, 2.95129605e-03, -2.92705167e-02, -7.38269940e-04,
       2.12979522e-02, 1.65243614e-02, 3.89648080e-02, 1.20870061e-02,
       1.57925542e-02, 4.34161685e-02, 3.14796343e-02, -2.97970953e-03,
       -8.10630340e-03, 2.15393957e-02, -2.01601395e-03, 9.38574690e-03,
       3.17705125e-02, 3.91063141e-03, -5.36920391e-02, -1.38533860e-02,
       -1.93682108e-02, -3.57982405e-02, -4.16580774e-02,
       -1.58956237e-02, 2.92397756e-02, 2.40681972e-02, -1.52416639e-02,
       -3.37894820e-02, -1.69367976e-02, -4.66592275e-02,
       -1.31487064e-02, -1.32075474e-02, 1.74908042e-02, 3.18914503e-02,
       3.00370939e-02, 6.45756945e-02, 2.53028842e-03, -2.84394342e-03,
       -2.29463503e-02, -2.03995337e-03, -3.10225263e-02,
       -2.26399731e-02, -1.32304162e-03, -1.18711609e-02,
       -4.41465490e-02, -4.21197228e-02, -1.82238743e-02,
       -2.45055333e-02, 4.38219644e-02, 2.96467673e-02, 3.25674973e-02,
       3.42899002e-03, 1.64241102e-02, 3.70932706e-02, 2.28281296e-03,
       6.09320682e-03, 6.04161341e-03, -4.34944294e-02, -5.52597754e-02,
       -1.92627497e-02, -1.68748107e-02, -4.30601127e-02,
       -1.62138529e-02, -3.57359350e-02, -6.87432289e-02,
       -6.38978258e-02, 1.68380234e-02, 2.66428143e-02, 4.96713482e-02,
       3.64624113e-02, -6.77639898e-03, 8.67895931e-02, 3.80490609e-02,
       1.24919387e-02, 3.98149826e-02, -5.32109058e-03, -5.36278356e-03,
       -1.80956926e-02, -5.12100458e-02, -4.22110111e-02,
       -6.03142008e-02, -6.30521327e-02, -6.97773919e-02,
       -5.86635210e-02, 4.71976958e-03, 6.30999655e-02, 7.31374323e-02,
       3.80452387e-02, -1.43947173e-05, 4.81046848e-02, 3.79368057e-03,
       -1.06712952e-02, 4.17286567e-02, -3.08139585e-02, -3.25358100e-02,
       -1.80777498e-02, -7.45328590e-02, -5.34041263e-02,
       -7.88405612e-02, -6.82151467e-02, -5.42829968e-02,
       -2.63295434e-02, 2.77162809e-02, 3.37815881e-02, 6.56450093e-02,
       6.44207895e-02, 1.40720429e-02, 3.88280898e-02, 5.47657833e-02,
       6.40804600e-03, 2.60350965e-02, -8.20132270e-02, -3.78107056e-02,
       -1.18968971e-02, -5.24266809e-02, -4.24244776e-02,
       -7.74052143e-02, -6.36871159e-02, -5.62791973e-02,
       -3.97586562e-02, 2.12125611e-02, 2.58436184e-02, 6.37462959e-02,
       2.14167163e-02, -5.36958724e-02, 4.80348989e-03, 2.03369185e-02,
       9.30445828e-03, 2.43078358e-02, -2.43081003e-02, -4.01560850e-02,
       -1.45965395e-02, 4.22915071e-02, 2.04402581e-02, 5.67457154e-02,
       1.01764686e-02, -1.42732980e-02, -1.19516021e-02, 5.63478889e-03,
       -3.71665396e-02, -1.24830073e-02, 2.21533608e-02, 5.22533469e-02,
       7.06220195e-02, 2.59501319e-02, -8.94444808e-03, 4.26807068e-03,
       -2.23955475e-02, -1.37666026e-02, -3.04085165e-02, 3.25533971e-02,
       1.07434178e-02, -5.60973771e-02, -2.31355596e-02, -1.97425075e-02,
       -2.70643234e-02, -3.15648206e-02, -3.80986147e-02,
       -6.12834208e-02, -2.76524574e-02, 1.32973772e-02, 2.72560772e-02,
       2.34361198e-02, 1.35813244e-02, -2.68902406e-02, 6.63658604e-02,
       6.00160696e-02, 9.86104533e-02, 6.39843717e-02, 4.71765399e-02,
       7.64622241e-02, 4.48269360e-02, -1.27501627e-02, 2.12251619e-02,
       -2.16903128e-02, -6.08428828e-02, -3.70735489e-02,
       -6.25920966e-02, -5.97808510e-03, -4.09187376e-02,
       -6.49172254e-03, -4.55881394e-02, -1.99158322e-02, 2.56939922e-02,
       -4.50047525e-03, -2.44452618e-03, 3.78408320e-02, 1.66957378e-02,
       2.20392011e-02, 1.03682661e-02, -1.40717598e-02, 5.26000233e-03,
       -3.62175405e-02, -5.65267354e-02, -6.89237043e-02,
       -8.26164484e-02, -6.53171539e-02, -2.48437189e-02,
       -4.62876037e-02, -8.15703273e-02, -4.66003455e-02, 7.09068701e-02,
       1.84691995e-02, 2.80962847e-02, 3.64333801e-02, 1.88914239e-02,
       5.71093671e-02, 7.80123249e-02, 2.20107641e-02, 4.11293171e-02,
       -4.34839986e-02, -4.70958427e-02, -5.27251549e-02, 2.42802743e-02,
       -1.46989187e-03, -4.08235602e-02, -3.02377194e-02,
       -3.29098292e-02, -5.14033288e-02, 1.97611842e-02, -3.44702229e-03,
       -6.83723483e-03, -4.25803801e-03, -4.03450988e-02, 3.13953795e-02,
       1.27944024e-02, 1.52994134e-02, 1.49684018e-02, -5.55757359e-02,
       -7.11706206e-02, -7.61945471e-02, -3.42933722e-02,
       -2.15343274e-02, -1.91235244e-02, -1.97192952e-02,
       -3.02004814e-02, -4.06525582e-02, -1.20259337e-02, 2.26058457e-02,
       2.80145686e-02, 3.87252718e-02, 2.47794557e-02, -8.83542234e-04,
       1.39417537e-02, 1.29727414e-02, -2.96381339e-02, -1.94054432e-02,
       -1.15019537e-03, -1.25569440e-02, -1.09138051e-02, 4.91398061e-03,
       -6.78032544e-03, -5.00870012e-02, -2.68468615e-02,
       -2.30784714e-02, 2.29034070e-02, 9.43486486e-03, 1.91191155e-02,
       3.23414989e-02, 2.86102910e-02, 3.31531540e-02, 2.43725590e-02,
       2.00823620e-02, 3.45554240e-02, -5.19865099e-03, -3.66536789e-02,
       -3.79799046e-02, -2.06331946e-02, 2.82385070e-02, 9.94684920e-03,
       -3.98002006e-02, -8.37697741e-03, 4.08450933e-03, 1.24367997e-02,
       -2.82960362e-03, -1.13780675e-02, -3.24325189e-02, 1.35458466e-02,
       -2.54084505e-02, -2.67915986e-02, -2.50442065e-02,
       -1.17384726e-02, 1.68547984e-02, 2.55363323e-02, 9.52984672e-03,
       1.37445386e-02, 2.43813302e-02, 3.74505743e-02, 3.07328980e-02,
       5.77329285e-03, -5.55238314e-03, -1.93622503e-02, -9.33125615e-03,
       -1.48312841e-02, -4.23684753e-02, -5.91036752e-02,
       -3.28718945e-02, -5.92551194e-02, -5.31956553e-02,
       -1.16485748e-02, -6.22487115e-03, -6.78299693e-03, 2.68403464e-03,
       -1.32842250e-02, 4.24665622e-02, 3.35354209e-02, 3.20284367e-02,
       1.57340281e-02, 3.34660858e-02, -3.14031541e-02, -4.61734608e-02,
       -6.50254041e-02, -8.00062418e-02, -1.36441011e-02,
       -2.72860937e-02, -3.00547406e-02, -3.94607484e-02,
       -6.96114525e-02, 1.58611592e-02, 1.55199580e-02, 3.67507748e-02,
       3.35754938e-02, 3.15687247e-02, 6.30087927e-02, 3.94834429e-02,
       1.50881009e-02, 2.07371246e-02, -5.05318642e-02, -7.69122988e-02,
       -8.46202597e-02, -9.74564850e-02, -2.13229582e-02,
       -3.08920387e-02, -4.19879667e-02, -4.52626385e-02,
       -3.85100655e-02, 6.08576238e-02, 3.47053930e-02, 4.75886948e-02,
       7.46399686e-02, 3.79967801e-02, 5.90916947e-02, 6.04057685e-02,
       6.21477813e-02, 4.76909801e-02, -7.10337386e-02, -1.73819903e-02,
       -1.47537738e-02, -4.28767204e-02, -8.57367367e-02,
       -5.96101061e-02, -3.68336551e-02, -4.21324670e-02,
       -5.80594838e-02, 2.04088688e-02, 1.70634035e-02, 4.52721566e-02,
       2.86653675e-02, -2.90548354e-02, -2.26994529e-02, 3.55630000e-05,
       1.08203981e-02, 1.33363353e-02, -5.29841147e-02, -7.84700923e-03,
       -3.28064561e-02, -4.91666561e-03, -5.80394007e-02,
       -1.08103678e-01, -3.46065685e-02, -4.50731330e-02,
       -7.52088279e-02, 6.53488785e-02, 5.83857782e-02, 7.92093724e-02,
       3.02061811e-02, 2.64214855e-02, 2.51433551e-02, 6.64640367e-02,
       4.19099033e-02, 4.30764630e-02, 1.29965860e-02, 2.70631257e-02,
       4.51900661e-02, 6.50723577e-02, 2.67205164e-02, -3.59736383e-02,
       -1.10683609e-02, 2.29037795e-02, 2.19563656e-02, -3.86014134e-02,
       -1.60968080e-02, 1.80961262e-03, 1.06980717e-02, -2.75064223e-02,
       -5.04218461e-03, 1.40011832e-02, 4.20624800e-02, -8.57367180e-03,
       3.93124484e-02, 3.25504839e-02, 3.96694839e-02, 3.87067311e-02,
       1.65950619e-02, -5.49126007e-02, 6.36088708e-03, 2.28480622e-02,
       4.84495685e-02, -2.81444844e-02, -2.29289532e-02, 3.69397132e-03,
       -4.97951470e-02, -9.28487778e-02, -7.43429363e-02,
       -2.71587912e-03, 2.80136708e-02, -1.01275994e-02, 3.73070389e-02,
       4.66216914e-02, 7.38453865e-02, 1.10350117e-01, 2.61635911e-02,
       5.30514494e-02, 1.45802973e-02, 5.31686060e-02, 5.22171073e-02,
       -3.76003981e-03, -6.32494921e-03, -2.34520156e-03,
       -2.06093881e-02, -1.67074017e-02, 7.45586026e-03, -2.95074377e-02,
       -3.31750847e-02, 2.57109781e-03, -1.75865134e-03, 1.48040745e-02,
       3.23498659e-02, 3.59602049e-02, -5.24488576e-02, -4.89013717e-02,
       -2.21717115e-02, 2.41543949e-02, 4.51639965e-02, -5.73251918e-02,
       -5.34131303e-02, -3.91381830e-02, -6.49401546e-02,
       -6.44661039e-02, -2.40517929e-02, -3.77024896e-02,
       -3.42259035e-02, -2.81767864e-02, 6.22064695e-02, 5.59851378e-02,
       5.27074672e-02, 5.36912233e-02, 1.65772159e-02, 4.53775600e-02,
       8.86615552e-03, 1.39082409e-02, 3.66031304e-02, -2.63583064e-02,
       -6.61101844e-03, -4.22015153e-02, -1.79598480e-02, 1.44985477e-02,
       -8.83677229e-03, 2.19840463e-03, -2.56365780e-02, -3.35070565e-02,
       5.65050505e-02, 1.67443343e-02, 3.02427486e-02, 3.34076174e-02,
       -3.12602334e-02, -3.04808421e-03, -1.80529412e-02,
       -1.87541731e-02, 8.61391239e-03, -3.12099401e-02, -4.46065441e-02,
       -6.39650971e-02, -1.17692286e-02, -4.45579514e-02,
       -4.85277362e-02, -4.71468382e-02, -5.92975169e-02,
       -8.26221406e-02, 3.93307284e-02, 4.93582524e-02, 2.02288795e-02,
       3.34887281e-02, 4.97854091e-02, 3.19665223e-02, 3.00110821e-02,
       2.32402775e-02, 2.08356716e-02, 1.07068149e-02, 2.37034794e-04,
       -3.74674611e-02, -3.25361416e-02, 3.87607478e-02, -1.09856157e-02,
       -3.48800980e-02, 1.34447208e-02, 2.48627318e-03, 1.94990337e-02,
       3.72757800e-02, 1.85665134e-02, 1.77813470e-02, 1.51201924e-02,
       1.30754337e-03, -6.81161473e-04, -2.41196509e-02, -2.42020246e-02,
       -2.80804541e-02, -2.27750149e-02, -2.62242202e-02,
       -7.70876184e-02, -6.16023224e-03, 3.48673225e-03, -2.45478172e-02,
       -1.22966962e-02, -3.03942375e-02, -8.50134075e-01 ]
